[{"id":78266,"x":1296.838373917542,"y":1008.840623013454,"size":15,"energy":896.5530550531229,"brain":{"id":78266,"inputLayer":[{"weights":[0.11817717314756947,-0.5139462187961027,-0.7241423890922701,1.3969420369757706,-0.2562482610308062,0.4420918658728516,0.8871759397665944,-0.3766490276678248,-0.42095228008314234,0.426635606773209,-0.4191176243320011,0.6612988799912123],"bias":-0.5423266619814235},{"weights":[-1.062220743253517,1.1538612503888992,0.9605450038485684,-0.04969971275722246,0.17575739378078084,-0.5646289432556344,0.16900465926954483,0.5330003772181063,0.594656382377859,0.18915770214170208,-0.3455395852832351,-0.048257152977406334],"bias":-1.1365461265822256},{"weights":[1.1189974686598003,0.15569696474054662,-1.1317111013875865,0.92621003801127,0.04699762055697268,-0.019262296069808865,-0.32734480517903286,-0.7528078714688773,-0.3226664010481459,0.4442575409425136,-0.6872763380655593,0.4815329744224431],"bias":0.4891509937731651},{"weights":[-0.8938627545700871,-0.8523893590779291,0.8205266249154088,0.4842340215096128,0.03621905962794582,1.0164575821800323,0.3273013160106086,-0.2878166717692295,0.5749166966781116,0.2734867328287721,-0.9694161520827037,-0.020607265830057515],"bias":-0.86266270044497},{"weights":[-0.6944102592778479,0.8485132589477336,0.3096936896459288,1.020832040547607,0.6810537137089827,-0.723625607931521,-0.7541070147593867,-0.8657256986032076,-0.5412702092629094,-0.5327433054646499,0.9217128468628885,-0.22756228995934483],"bias":0.16633013578576744},{"weights":[0.7035878550491075,0.3849108155524854,0.4885622922912882,-0.12520747977688335,1.0000355083766663,0.6817910719649424,-0.43675907084797777,-0.29556123391964545,-0.15217238489651658,-0.1827050858016397,-0.2935594549159038,0.42815477748271996],"bias":1.2742685054359935},{"weights":[0.7695420263357392,0.34063849851820804,-0.18404717870285342,-0.3698947906971394,-0.5720703782866928,-0.9590331056831334,0.12095167637641911,-0.462767031526628,-0.5130483884325605,0.718019692505161,0.04136387713174349,1.1180297321846902],"bias":0.4549480155254683},{"weights":[-0.6148643999964529,-0.1406655512844355,-0.2525752080773175,0.6544026032167296,-0.19923958097175193,0.5595881403323116,-0.6825716350596661,0.3746573894207441,-0.6095952391307119,-0.2519140985353581,0.19001958496283672,-0.08194653685080944],"bias":-0.15584751293302043},{"weights":[0.27168751599665775,-0.5958778152890077,0.5450140383534228,-0.25186912365894343,0.8396904378314253,0.31821945263714935,-0.8305171858199197,0.11099437267967772,-0.46893251769439276,0.3463616935248044,-1.1547032544772768,0.4117294778023094],"bias":-0.6091487524781365},{"weights":[0.02310040342285486,0.4574276979975862,-0.982483523893732,-0.028621508852468065,0.5326776110382713,0.5787480816504961,0.45801556610820005,0.1198732637649402,0.6294995076912753,-0.2674289181540721,-0.1465911534300822,-0.3150480298673035],"bias":0.7773117395148003},{"weights":[0.5064679597939148,-0.8847989150862857,0.37074901839466357,-0.1505283173161931,-0.6634170754921656,0.4905433258931986,0.7015122368297926,-0.47926675028794286,0.7939795620412331,0.3625921941583478,0.7583088777043391,-0.4982324764600731],"bias":-0.8638393120445463},{"weights":[-0.9638960316551477,-0.358394425442531,-0.5512758165834347,1.1106367584123742,0.7601009407676289,0.05875849042533993,-0.0004182974721110913,0.1029295235674197,0.527947496731528,-0.5250761429301546,0.8000488765160234,-0.1396231226392579],"bias":-0.7128194836169682}],"hiddenLayer":[{"weights":[1.1857763722585992,-0.48422978409652473,0.06329633259498292,0.8485460159044862,0.2951100840737882,0.2185129631731214,-0.5016520411477176,0.2925381318069136,0.602840949657132,0.6417659158103719,-0.7292330378856112,-0.1668382083198909],"bias":-0.9090648349193412},{"weights":[-0.45879466501125,0.403120833926598,0.9032293072669039,-0.6584070408378578,0.446968518087182,0.8197775021712479,-0.7470697239037789,-0.4898680355870964,-0.832683108618359,0.32409045806570885,0.8638856092535179,0.12475579910996226],"bias":-1.098326773544},{"weights":[-0.4763562052429275,0.28983354878757583,-0.6792140744479421,0.6529718228019525,1.1585618664657042,0.41154803942422935,0.4930940075753583,-0.7514972080351874,-0.6938846351382572,0.14220193408444579,-0.3759706122842765,0.5459055235452533],"bias":0.4211236784246829},{"weights":[-0.7438415015289751,0.21750859266368963,-0.004431712714279563,-0.4916327346609791,0.7048381074292975,1.0590478435157953,-1.0123477436087631,-0.6583082336179654,-0.4729477238607184,-0.2886218494223651,-0.11950219249783087,0.607596053503928],"bias":0.11620930086550746},{"weights":[0.4519511659264022,0.3344420361579257,0.7516112684723637,-0.8188024204816478,-0.587507692595357,-0.11360096677360819,-0.7199334593463134,0.6401452616136067,-0.8852262631912493,0.08719129190599716,-0.02733134729984884,0.1255597661752268],"bias":0.4687493206936284},{"weights":[-0.4976367938025777,0.9000222204579378,0.6323071618105638,0.867367263703075,-0.8516789597568316,0.8134154719478908,0.119323566165414,-0.13275750315048518,0.06746102679934414,0.45375679188637863,-0.12571379412145625,0.5155781652472265],"bias":-0.0785875796024827},{"weights":[0.8621036073414058,0.002044719366469626,0.4124753808365714,-0.29348493273225157,0.7341674427052449,0.4941162334895525,-0.8010126715612078,0.4135921518234811,-0.6905625482777099,-0.8783820360341508,0.7943302197853662,1.4782067538152421],"bias":0.024959872133973243},{"weights":[0.2888714533566896,0.15347299903850464,-0.6497762296062249,0.7295691182984526,-0.3009431133631981,0.6081903148721775,0.6553836923391498,-0.25847905916545655,-0.926609463010907,0.825017700481817,0.8029825164964817,-0.2896506895930848],"bias":0.6421615942813428},{"weights":[1.1296528539731563,-0.06828417731644786,-0.810297286068333,-0.0016520986808225627,-1.0509028764409192,0.33059424682559374,-0.07998070878369609,0.33977866609437796,-0.644735063552082,-0.5497934267232022,0.07671669753189894,1.1732512020014443],"bias":0.1768214402675455},{"weights":[0.2852933074887911,0.9392313070345931,0.06345228290012864,-0.2688215827693111,0.7878269667356962,0.4271161241664736,1.0589471256317773,0.4694496789740058,1.3374530064116326,-0.47088704712143253,-0.3053773174449477,0.06349010152391715],"bias":-1.0503771671736668},{"weights":[-0.4236556312681967,-0.6742144275488997,-0.196946384628369,0.30277876701869866,-0.48064547222427956,0.6772593687061859,-0.2810906213081442,-0.4497444925665622,0.9244545104186845,-0.7556043070001239,0.8518402957604239,0.6657270248462456],"bias":-0.24964995745466118},{"weights":[-0.00044611602812782286,0.9144937378593564,-0.11938250169588392,0.6053300753825281,-1.2126232599149125,0.011429596473885847,0.8217093418782921,0.8029403328304213,-0.32785208479260297,0.46695642878947513,-0.9326592358966734,-0.23363164173396028],"bias":0.18766386950949154},{"weights":[0.0013849207635252408,-0.27782126536902496,0.44112105079847386,0.8852296394104191,-0.3435255039408339,-0.6156259875895486,-0.3421336917504472,-0.23418763880734977,-0.9104991129888864,-0.06095012837902072,0.7729853210358087,0.35401396091342885],"bias":0.26913068115957994},{"weights":[-0.8003116383734953,-1.417742448886663,-0.41495817258500045,-0.7138103094985355,-0.11907266288018126,0.5691225328072672,0.08153149651803769,0.3626095203556729,1.150919965675335,-1.0018922258002556,0.075885065902385,-0.5742410502960114],"bias":0.08162204642858707},{"weights":[0.3220999945990669,-0.2089222152141917,-0.11435764599342599,0.5373019476751566,-0.6257312154575272,0.6782944824863383,0.4095675708196462,-0.3102809628426929,-0.9968616694358147,-0.15371690888935235,-0.5078778523449126,-0.43319778805161663],"bias":0.658492545335539},{"weights":[-0.6441941651732109,-0.2226397990069212,-0.9035545237076354,0.4972775567522073,-0.49563666312016946,-0.29136567992826123,0.8130181327955035,0.9126269427428377,1.0589431481508964,-0.10208736442447353,1.3216123959251533,0.682702113937502],"bias":-0.5557896434864682}],"outputLayer":[{"weights":[-0.24387076669758445,-0.8226225082954105,0.5586724991734726,-0.7080032205932811,0.9293441469920026,0.21127131714068462,1.154896218721234,1.3085677646411658,1.019348774827762,0.30017724124740297,0.32453308375206635,-0.20064071361257219,0.10112772448513731,-0.04534121349309224,-0.5710808812616537,0.5207307536514231],"bias":0.5777138495983996},{"weights":[0.30039039563794645,-1.0013855137373415,-0.659740977500069,-0.23281470521764608,-0.5024788185180351,0.7318193822278295,-0.8243494066958779,-0.7810904658321836,0.887265068922964,0.08821372128721802,0.2730837473169836,0.54229982693688,-0.9979821500079367,0.17283448890067113,0.4850104612356417,-0.7195928017885378],"bias":1.2240414543507647},{"weights":[1.174511875049628,0.0873924078976403,-0.26237655193516457,0.6339754583432129,-0.42050569166246177,-0.9527971031477462,1.0792361337287608,-0.6519024123670258,-0.06552113962107611,1.3648711200729293,0.28000668502864373,0.3412358495107627,-0.4991416390290685,0.3806241614889002,-0.7934100418027082,-0.1869037407756552],"bias":-0.7432200674644625},{"weights":[-0.24842767387413212,-0.35537020290867954,0.0808213538570598,0.04683653163708253,0.03248278563438173,0.9938038163674071,0.48163503402546554,0.12089500439277936,0.8090425964446221,0.39262480405422584,0.6303226152520485,-0.15350047875316922,-0.07628392970534895,-0.42266279186740674,-0.12596670247979147,-0.704966333919101],"bias":-1.0503474089383684}],"inputLayerOutputs":[0.5299187089223436,0.8949045564157363,0.27073793619607633,0.753865668762902,0.2411410872867302,0.8270147675279794,0.5030750368916228,0.10967142916153744,0.24287487767579036,0.6507755367807362,0.6225486608227053,0.2269390427126451],"hiddenLayerOutputs":[0.5116463013718687,0.4251862023941619,0.7917738990750638,0.4427481134633254,0.47985797675881503,0.8958021787683519,0.6665784817882101,0.9418295900489383,0.5769747466439993,0.6739187629880682,0.4415383409720601,0.7753758604058826,0.5790803645003468,0.10024607218560465,0.6988346556722892,0.5868414104671162]},"challenger":null,"time":965,"challenge":false,"color":{"r":197.8545295808866,"g":193.71791102824,"b":189.14074195610684},"inputs":[0.6493206837231138,0.5065232190454214,1.7931061101062458,0.965,0.06151013354814018,-0.2693486143998674,1.614513706449021,0.93,1,0.10396775447862222,-0.4784321167732862,0.03779184391967977],"outputs":[0.9736144670047754,0.48109052343539765,0.34822074087146315,0.5985271692836792]},{"id":78267,"x":1763.646273650688,"y":1919.9234609951905,"size":15,"energy":472.9333784768072,"brain":{"id":78267,"inputLayer":[{"weights":[0.11817717314756947,-0.4809405994184809,-0.7660650566734108,1.4103237506954514,-0.2907328413458559,0.48263891710092044,0.8871759397665944,-0.3766490276678248,-0.39635647579515687,0.3547093743010189,-0.43870726076452216,0.6583999171515136],"bias":-0.692965423139587},{"weights":[-1.126045617183429,1.1343393160421416,0.8448734818800369,-0.03897140275047296,0.17611023486608782,-0.5392556623203328,0.2031354429684509,0.5561568785652549,0.5707811880611673,0.12407650537636514,-0.3615247515681779,-0.03215524265364197],"bias":-1.1365461265822256},{"weights":[1.0387372666708992,0.18389181534954774,-1.0749269425604617,0.9064076155733868,0.0009234640114610046,-0.004295230822728424,-0.317678039523487,-0.7606929333824266,-0.34800253498776623,0.5207863308237435,-0.680143233478874,0.4300207727163766],"bias":0.5951705129453766},{"weights":[-1.1403479491492439,-0.790856236226807,0.6889693128784623,0.5330543176444401,0.020004754793280843,1.083415087361817,0.24550098320577313,-0.44213468117479077,0.6825643527980023,0.06779671239036435,-0.7536562139931406,0.013172815503966491],"bias":-0.8517140809020494},{"weights":[-0.6224036635368007,0.8149982011707245,0.3062360735599558,1.0892145166761578,0.5812159871279576,-0.6501737028695588,-0.734441209176319,-0.9268151025569582,-0.5725715587048346,-0.48374860631665784,0.9228260827233691,-0.17149474198729384],"bias":0.03538612027115175},{"weights":[0.656019602995475,0.3849108155524854,0.4769409680462418,-0.19242988785905926,1.0000355083766663,0.6029684711452414,-0.43675907084797777,-0.35269630850982725,-0.15214646141178373,-0.14353430124919386,-0.3414985567029978,0.44502725452353376],"bias":1.2742685054359935},{"weights":[0.8092325886430631,0.38413632893545285,-0.215756250070646,-0.4231877269484038,-0.5720703782866928,-0.966493759168453,0.14135699303026994,-0.49669442658756435,-0.5163540041324197,0.7951041859934228,0.06465419766005412,1.1180297321846902],"bias":0.41602692745631037},{"weights":[-0.5485430644004224,-0.2560089989839264,-0.23611614827303792,0.7165628127686021,-0.22885717121747984,0.49486755099117,-0.7792690742036131,0.4010939942110927,-0.5674852488300643,-0.3234323291682997,0.14590164029881572,-0.020538475081680406],"bias":-0.09788487974229407},{"weights":[0.30415637907438264,-0.6327271557190979,0.5998255414358251,-0.25186912365894343,0.8724570961288353,0.36663145591242663,-0.8516790035938893,0.11099437267967772,-0.5025403537247762,0.32874361263322616,-1.192921383790193,0.44779584482444884],"bias":-0.6091487524781365},{"weights":[-0.01077415226387099,0.469019645790755,-0.887221306038899,0.09153638539685635,0.7081173825149837,0.604686668191918,0.33902974889810383,0.1049975710019902,0.5882241259346599,-0.19728617512534874,0.08611116458684857,-0.3677753098958897],"bias":0.7470388118214015},{"weights":[0.3901419847419639,-0.6919395636351825,0.4028906253932056,-0.19708298145025802,-0.6393995701601055,0.4521219067026423,0.7673660000405917,-0.6251693351973187,0.6967543829068407,0.4819383416450045,0.6185351294301212,-0.5344509675019781],"bias":-0.9965135342773673},{"weights":[-1.0383369550883723,-0.3931336483234236,-0.5758826908902621,1.0441425656335213,0.7460711393560004,0.1473307183330709,0.09126884575730362,0.06699119874946996,0.6047746941575317,-0.5238108579917254,0.8661131862564697,-0.11834611089111588],"bias":-0.6790826607965198}],"hiddenLayer":[{"weights":[1.2535196856383393,-0.47421035496760455,0.038527348745051954,0.807620020113809,0.17256322298964039,0.20606021086318552,-0.5599317025755318,0.27360362366054825,0.6628944861400531,0.6700360890594401,-0.6450266961384498,-0.058333852920191526],"bias":-0.9652766898091852},{"weights":[-0.5986344672549253,0.43348419418729106,0.8647267801308978,-0.6150116360691529,0.4062258084915977,0.8149199269851496,-0.7087628245139161,-0.4948739168472243,-0.987189709956502,0.3557244570717145,0.91914918699919,0.16148038944011678],"bias":-1.0909979528962357},{"weights":[-0.5279764447794857,0.30378007730287393,-0.627231729831062,0.5672961563051907,1.0668644121111692,0.463875196832918,0.5626387903953634,-0.8224112245552334,-0.6275890573579963,0.14220193408444579,-0.30370413820365016,0.5778987109395848],"bias":0.4748372780746567},{"weights":[-0.6586306985011338,0.24093198043747927,-0.060640291125653216,-0.5246174276128328,0.6891089971078669,1.0734811626961176,-1.0359857286026175,-0.6089346633251531,-0.46510128966593556,-0.2639087948095599,-0.11448607923757105,0.6357943195331908],"bias":0.1419710047739717},{"weights":[0.4519511659264022,0.3344420361579257,0.7516112684723637,-0.8188024204816478,-0.6347524444119451,-0.11360096677360819,-0.7199334593463134,0.5796244676310398,-0.8528987029868931,0.08719129190599716,0.010760981153767814,0.14711800594204316],"bias":0.5122006192761314},{"weights":[-0.5971206815992812,0.8671585094343871,0.7654425107624832,0.9181225785288009,-0.8648061566003662,0.827110362371863,0.23240718400386418,-0.09260361770951286,0.06284728546103067,0.5055836180131489,-0.0905278637808153,0.355157817599567],"bias":-0.03609940824335864},{"weights":[1.0119230930115062,-0.0168771666259303,0.4007748559058862,-0.3060829324204656,0.7341674427052449,0.5445376441852553,-0.7905035790636423,0.4361438200430247,-0.6652312359843778,-0.9135382738300524,0.7816073447100819,1.5083686899700575],"bias":0.05676197077088853},{"weights":[0.28703677562894375,0.15347299903850464,-0.6752982280481838,0.7406175382593876,-0.2756989243474056,0.6415295639168065,0.6553836923391498,-0.25847905916545655,-0.9367584284775667,0.8058170614628589,0.7771105072411216,-0.323502630923445],"bias":0.6421615942813428},{"weights":[1.2158030854430275,-0.08471357227485968,-0.7940844120298045,-0.03600744556951008,-1.012323688864827,0.253052939956149,0.07273978506500811,0.2750519769842415,-0.7061128324312187,-0.5954761171654112,0.044633579466914985,1.2478507464038613],"bias":0.27813230150365853},{"weights":[0.17772174379961808,0.7525139439276582,0.02728701188770282,-0.24284740026850582,0.7414618705661589,0.300200451387187,1.0472376899408018,0.5308668030987632,1.2413375065794667,-0.46042128720752695,-0.45321740068076716,-0.2287244546255136],"bias":-1.1616398306838884},{"weights":[-0.3936152647495377,-0.6910849271202002,-0.2729180808242849,0.2978806470802236,-0.7012706924405526,0.7671108556065843,-0.14910381847541873,-0.4660571845616674,0.7382995744737955,-0.8335077292652248,0.9128191211107035,0.7340731421526062],"bias":-0.24384219584206332},{"weights":[0.06560361004987604,0.9454321033235411,-0.11938250169588392,0.5835356873621931,-1.1764153053635225,-0.032075818532963166,0.7751222620186615,0.7694325290274476,-0.3597149490044848,0.4957425243127454,-0.9332828984488319,-0.23363164173396028],"bias":0.17792656261814116},{"weights":[0.0013849207635252408,-0.3265696848649312,0.4826318568233741,0.8900298189923325,-0.3420466473751894,-0.6331796141509483,-0.36331882137322574,-0.2787511269445152,-0.9343554054285804,-0.044705380164513996,0.7444377697080208,0.33160762988107384],"bias":0.23320180346403163},{"weights":[-0.8188879692518737,-1.3981903357046597,-0.4074480148271181,-0.79706330689242,-0.19367475704190631,0.5741581170693452,0.061885144293793146,0.36712114193009543,1.1866512969596892,-1.047131671905957,0.06148161796247616,-0.5742410502960114],"bias":0.09576455116558219},{"weights":[0.33872975038537334,-0.09329927383395908,-0.10633196691972316,0.573806319265902,-0.6627859596566917,0.6520145465861235,0.21360574208114697,-0.3933941968712663,-0.995071428489411,-0.10910177084530677,-0.245981291475303,-0.46217607289611534],"bias":0.6104433378036901},{"weights":[-0.5998815098639672,-0.2292841842614095,-0.9479863570727494,0.5535147294365954,-0.4903640894649568,-0.2959533413502657,0.6738874974692708,0.8555157901462691,1.1018862095094768,-0.07159130640051517,1.3235307466000894,0.6963510251674048],"bias":-0.5008726805686662}],"outputLayer":[{"weights":[-0.07540589894566857,-0.9790818509862951,0.5084282237647986,-0.7020072045743472,1.162716164937754,0.07074157508043565,1.26406258811997,1.398228344074871,1.2172747641176145,0.43372313191165424,0.3558022357277455,-0.1617925650962862,0.1804804132140809,0.08594583176418771,-0.693727777866427,0.42091208240331723],"bias":0.6274515891448937},{"weights":[0.3119571573783034,-1.1044526946366473,-0.6851782645193294,-0.19160603188852288,-0.4375589483316833,0.7931719885127271,-0.8243494066958779,-0.7351115925263164,0.8203354309021941,0.03510669294418739,0.2237893898359435,0.4955993279383308,-0.9616063346820939,0.22733847668241763,0.4961116703701564,-0.6200497830005022],"bias":1.32045966132722},{"weights":[0.9551884772073133,0.13420854363116203,-0.30579638568026546,0.5926574015828423,-0.42570878810634566,-0.9585104575608826,1.0289390792434228,-0.5489251436817912,0.009239789111167608,1.285260691436225,0.3900402533031178,0.3151774709366897,-0.6394448155091145,0.39474238099319003,-0.7037978893707878,-0.09016184746882389],"bias":-0.706587984568437},{"weights":[-0.281297847375787,-0.44878712074724836,0.12525400940253476,-0.002622129362627991,0.024901487503564967,0.9041025316483703,0.548809610324108,0.12231647210735874,0.8713178294765689,0.36960795380993694,0.6146357549025171,-0.14561296417367936,-0.11267422899275106,-0.4288379882387132,-0.18874267119396948,-0.6655012520790646],"bias":-1.0502341143800888}],"inputLayerOutputs":[0.4820709892292569,0.6258994378461291,0.7288121056429037,0.3468193352833112,0.5754114922379778,0.8899445071160644,0.6674313444025403,0.18391423774498614,0.17094130307900104,0.769429514330748,0.4882414048978134,0.28924479380628637],"hiddenLayerOutputs":[0.4766966353030752,0.5754209738177306,0.8056598596626804,0.5356838588561031,0.5822602220276932,0.8732401640257916,0.7651089280962696,0.8992748448276471,0.4416835680726268,0.5966662583448346,0.3263108243348666,0.6607768935642095,0.47529307201554144,0.12152262165190983,0.6452268842027756,0.4037082714794217]},"challenger":null,"time":946,"challenge":false,"color":{"r":164.76291554693253,"g":218.45206377027597,"b":223.97119488931187},"inputs":[0.8807935994062981,0.9579157399508904,0.9458667569536144,0.946,0.02167097752726446,0.00009871686836124101,0.7292150016114695,0.12,1,0.06081389101419159,-0.01149152852824468,0.21645080906844297],"outputs":[0.9746468863576461,0.4376273195858037,0.36954776427684666,0.5509322675128551]},{"id":78268,"x":333.40518567815616,"y":315.9991546214276,"size":15,"energy":685.4714869499816,"brain":{"id":78268,"inputLayer":[{"weights":[0.11817717314756947,-0.45376202455202147,-0.7660650566734108,1.4093350346965574,-0.3033015112747408,0.4565530209544766,0.8871759397665944,-0.3592422162879696,-0.3625620340689999,0.40218264679781646,-0.4191176243320011,0.6785959283596192],"bias":-0.5659077752536186},{"weights":[-1.1341591363711012,1.1374178543152036,0.9600906679066143,0.0009160814054508526,0.16869745076925247,-0.5553715831269588,0.11166787848847674,0.5279569087458583,0.5016599597994936,0.2678907474706612,-0.22646510803365205,-0.11348387625300188],"bias":-1.1165916222691212},{"weights":[1.082075298375003,0.16458063363154424,-1.0262127170778146,0.8699616674454453,-0.03734834631967311,-0.03117805447023332,-0.34958507223343016,-0.6447486851062705,-0.31510052048529275,0.5623476521444833,-0.6474885727405706,0.4057836018396667],"bias":0.5241274521193569},{"weights":[-1.061733186341924,-0.790856236226807,0.6926918238888226,0.3979778479596461,0.035684562864372396,1.0699270230888085,0.24550098320577313,-0.4461704276013777,0.6802398861096506,0.023378059060391525,-0.6588747649860331,0.0521793017038014],"bias":-0.8816620253699302},{"weights":[-0.6598575888860372,0.857545549504103,0.3002823891831412,1.0475832996028176,0.6511026562724663,-0.6410742967607951,-0.7643339618535199,-0.9153687723722513,-0.594836970397063,-0.5249268183297319,0.9700320929517201,-0.13123267518155474],"bias":0.031530334290791745},{"weights":[0.6519320493687096,0.344663636424721,0.46180458023336163,-0.10615537232440479,0.9846035216250052,0.5807928302812665,-0.5396300583576854,-0.30169665700303616,0.07620723949111557,-0.1717449211698767,-0.21479473485465403,0.32870458201538755],"bias":1.0503514561033613},{"weights":[0.8049400507821715,0.412363678393618,-0.215756250070646,-0.4213070854762736,-0.5720703782866928,-0.9590331056831334,0.14546366117764192,-0.49669442658756435,-0.5130483884325605,0.6841112317488232,0.013232571985500152,1.1180297321846902],"bias":0.42538354153844193},{"weights":[-0.5861988813857574,-0.19392293704174265,-0.29656392280596094,0.7388613957964844,-0.29108188103952043,0.5408071663631845,-0.7474741442461288,0.38372300057155667,-0.535723398216343,-0.3472820997121485,0.216154506423396,-0.020229379192992746],"bias":-0.04059710909237141},{"weights":[0.37178920126242504,-0.6393454857294505,0.542186233943692,-0.23793930713088518,0.8224239350528331,0.315106253550412,-0.9343576950142669,-0.014647341290844898,-0.49658639779385416,0.28175236093574463,-1.3397654778938441,0.38212166834682215],"bias":-0.5885422833743909},{"weights":[0.03527554470502336,0.5142203620976145,-0.9799163999513555,0.005031821382123672,0.5286071413860917,0.546961896031324,0.4606962568141889,0.09023066260321923,0.6446790673590793,-0.29324531346204885,-0.09973404164328069,-0.254494158369434],"bias":0.7815009419372033},{"weights":[0.5686142206497521,-0.8592530283839485,0.3781628502156595,-0.17822360487491845,-0.6427084560008216,0.4566132445639266,0.7105103325681915,-0.5110265454886551,0.744891724281617,0.4009819630724258,0.7152946703758214,-0.4982324764600731],"bias":-0.9452260450460316},{"weights":[-1.0493620600428004,-0.43549766284490166,-0.5319941449407666,1.0411384214538009,0.7720069316258568,0.119907562908513,0.08051823629553331,0.0338354768907343,0.5374565663301971,-0.5238108579917254,0.8661131862564697,-0.12548857390798904],"bias":-0.6563646389759029}],"hiddenLayer":[{"weights":[1.1857763722585992,-0.5285297528210635,0.03993811230975265,0.8166951734360427,0.2951100840737882,0.2185129631731214,-0.5016520411477176,0.3305791188920842,0.602840949657132,0.6417659158103719,-0.7588211233606994,-0.1668382083198909],"bias":-0.9090648349193412},{"weights":[-0.5986344672549253,0.4692435611042343,0.8647267801308978,-0.6150116360691529,0.4062258084915977,0.8149199269851496,-0.7001293884730293,-0.5092737813538812,-1.0152251631517535,0.37029600337047375,0.91914918699919,0.13602890310222904],"bias":-1.1375258682678167},{"weights":[-0.4763562052429275,0.27659576642129946,-0.696388919750995,0.6275226797168661,1.1550247739397215,0.4280941018783667,0.538828076910298,-0.7514972080351874,-0.6874523428085312,0.14220193408444579,-0.39458299461623925,0.5871263276156725],"bias":0.4211236784246829},{"weights":[-0.7060085999212042,0.26730000132162746,-0.049219973275882394,-0.5070521400550648,0.7027083227513566,1.0590478435157953,-0.979400973485903,-0.6380703819730743,-0.4729477238607184,-0.2886218494223651,-0.11950219249783087,0.607596053503928],"bias":0.1419710047739717},{"weights":[0.4519511659264022,0.3361137808840879,0.7187681194896544,-0.8461930682489146,-0.6432120657970868,-0.15851872790195873,-0.6778340393552391,0.5548547116181078,-0.8852262631912493,0.08719129190599716,-0.02733134729984884,0.14711800594204316],"bias":0.4687493206936284},{"weights":[-0.4694821904587634,0.8793872699390946,0.6481684478762895,0.9201686798437781,-0.8364283959248651,0.7908517378957592,0.09354118877162779,-0.13275750315048518,0.03792114071198556,0.4886535996496707,-0.12571379412145625,0.45124102743129524],"bias":-0.04680205546509915},{"weights":[0.7340548434311619,-0.05352798889925383,0.42463873551987313,-0.25749271007473007,0.8645166175835612,0.6236847392825736,-0.7880119167590396,0.4959681024449837,-0.7461827938707716,-0.9490598648879843,0.7178646390844841,1.5011589295935739],"bias":-0.012758945066610933},{"weights":[0.23481249920866307,-0.04373099854039045,-0.5767829788944427,0.8059084474092401,-0.2895201856382411,0.6767522090626228,0.6842239818128052,-0.24702177537692935,-0.917351135344384,0.8800721925987872,0.8356667923502019,-0.33718106983403323],"bias":0.6693214513666105},{"weights":[1.2025983928717252,-0.09195691585975674,-0.7640971582667014,0.06655936364858786,-1.0034997186361219,0.3427466805177397,0.06329515598694725,0.32374557407655513,-0.6923468149583032,-0.6477487620360823,-0.008363688530335141,1.2482191208069855],"bias":0.1623574338836002},{"weights":[0.2733337864122246,0.9259597967738519,0.06345228290012864,-0.26432448772595,0.7652711148881246,0.4269884734994276,1.0589471256317773,0.4779138638336086,1.3219300005937937,-0.47088704712143253,-0.3053773174449477,-0.02374347271842718],"bias":-1.0503771671736668},{"weights":[-0.4204402594128104,-0.6904152370387813,-0.20117750281295724,0.3259683311571335,-0.45042502732378564,0.7052224612047999,-0.29028925969487307,-0.4660571845616674,0.9020959270062815,-0.7307007681611262,0.834870523365941,0.6657270248462456],"bias":-0.203562459251743},{"weights":[0.09106332022385821,1.0099977065944166,-0.12533495648828955,0.6366102630824945,-1.1513637298238326,-0.02116074547767157,0.8217093418782921,0.7366444452320421,-0.21902645738279536,0.47296476567883,-0.9269515378580232,-0.23578137039980787],"bias":0.09895407082810662},{"weights":[0.0758323873813731,-0.3335910021780753,0.4301345623302018,0.8906641360799802,-0.30335650582439216,-0.66649804034256,-0.37438489413599707,-0.3429349629786978,-1.0176249659923222,-0.02121088270594644,0.7713416709683932,0.2806979693950765],"bias":0.1863229566015036},{"weights":[-0.8188879692518737,-1.5110436724493872,-0.4074480148271181,-0.79706330689242,-0.18853254058395946,0.5507202327736823,0.14074834309012152,0.3626095203556729,1.1723378977446557,-0.9971619090274743,0.034873158783580924,-0.5742410502960114],"bias":0.09576455116558219},{"weights":[0.345193963014186,-0.15886802257197935,-0.04013025055189383,0.5336036803369494,-0.7442440115285195,0.669135857052488,0.22762910605033773,-0.3627554156773817,-0.8845843229776029,-0.12163300105800591,-0.36096794769193025,-0.4263483206785086],"bias":0.7660818934299393},{"weights":[-0.5998815098639672,-0.17200594451414403,-0.9427054588942471,0.5535147294365954,-0.5197157531601307,-0.29257375267198643,0.672152821392622,0.872590016980778,1.1018862095094768,-0.026165817938728075,1.2650819976286631,0.6816161950880221],"bias":-0.517469202514777}],"outputLayer":[{"weights":[-0.24387076669758445,-0.877117124179915,0.5586724991734726,-0.6463087489280975,0.9293441469920026,0.24042719053452904,1.1721941872842214,1.31545890361731,1.019348774827762,0.30017724124740297,0.32453308375206635,-0.18185260790182464,0.05025444123018273,0.015114676554441354,-0.6048401202086208,0.47856287615154147],"bias":0.5777138495983996},{"weights":[0.30039039563794645,-1.0013855137373415,-0.659740977500069,-0.2703155833973763,-0.5024788185180351,0.7497539934746542,-0.8526536548094151,-0.7801758158648251,0.8870817155731608,0.08821372128721802,0.2730837473169836,0.552655703050034,-0.9968102303557898,0.17283448890067113,0.5082915217889529,-0.6436782506162317],"bias":1.2373593753422776},{"weights":[1.0721243134073586,0.10189326221532904,-0.29323338375975017,0.5848599380868565,-0.44629146141193254,-0.9423816697207494,1.1232823638284566,-0.6443480868776074,-0.03841482985468927,1.3230734863667262,0.3308713132850871,0.3816139767676792,-0.5840805508986758,0.357680258452474,-0.7966492455856993,-0.17542915524922442],"bias":-0.7462808221819256},{"weights":[-0.24725574466846237,-0.4040872863378358,0.1428464520518372,-0.002622129362627991,-0.03897757418964075,0.9183148134591577,0.5659125597002073,0.10778796975091057,0.8657750671384233,0.3710799154967451,0.6095131085038776,-0.11710080959588219,-0.05232556096098423,-0.3916136621251375,-0.17006605463030466,-0.7013724225817243],"bias":-1.0450213215009958}],"inputLayerOutputs":[0.456887574045647,0.6327947719452184,0.2719981212612945,0.6431367947271281,0.6282543643406321,0.8359536531452941,0.4098902197474419,0.42786720660886846,0.12685346703335942,0.6041762948880837,0.6850560814156228,0.6599673708655585],"hiddenLayerOutputs":[0.4931310881763018,0.49288075693543987,0.8444075073462586,0.5953558857589343,0.4952308647053637,0.8445073949477667,0.8815095372176205,0.9194029295266856,0.6565592472944483,0.6552721992556767,0.4986956102249975,0.6302579589523186,0.5556473791885176,0.10792939553387043,0.6156333974374871,0.6720375548759212]},"challenger":null,"time":930,"challenge":false,"color":{"r":203.99476713181528,"g":187.3843344196226,"b":185.32963859256967},"inputs":[0.16577066165913437,0.16010650929015247,1.3709429738999632,0.93,0.02181070827669381,0.3818247711365638,0.5435176532797303,0.474,1,0.06914752203588054,0.8979712301280321,0.6146858516898916],"outputs":[0.9803555392174619,0.3915422868573201,0.4175415182863312,0.6228073402914631]},{"id":78271,"x":268.57145104287656,"y":1882.789888505553,"size":15,"energy":671.3480998773716,"brain":{"id":78271,"inputLayer":[{"weights":[0.11817717314756947,-0.5139462187961027,-0.7241423890922701,1.3969420369757706,-0.2562482610308062,0.4420918658728516,0.8602149066671851,-0.3766490276678248,-0.42095228008314234,0.4031075048491033,-0.4191176243320011,0.6612988799912123],"bias":-0.5423266619814235},{"weights":[-1.1053112452026443,1.1538612503888992,0.9244221426803613,-0.04969971275722246,0.17575739378078084,-0.5630386888632087,0.16900465926954483,0.5330003772181063,0.594656382377859,0.1802215012856049,-0.3455395852832351,-0.048257152977406334],"bias":-1.1365461265822256},{"weights":[1.1189974686598003,0.15569696474054662,-1.1317111013875865,0.92621003801127,0.0863450328864393,-0.057497286211518076,-0.32734480517903286,-0.7528078714688773,-0.3633126799118147,0.4442575409425136,-0.6431444223798032,0.4815329744224431],"bias":0.4891509937731651},{"weights":[-1.0861854260926442,-0.790856236226807,0.7198496150393341,0.44659088134968467,0.06139713477618415,1.0346270406414608,0.24550098320577313,-0.4461704276013777,0.6802398861096506,0.023378059060391525,-0.7188152344507166,0.0521793017038014],"bias":-0.8969904509694974},{"weights":[-0.6944102592778479,0.8136245229872919,0.3096936896459288,1.0641680387887147,0.6810537137089827,-0.723625607931521,-0.7311999846957148,-0.8617276784822964,-0.4973589492062573,-0.5327433054646499,0.9242519229098259,-0.22234974381008965],"bias":0.16633013578576744},{"weights":[0.5979723918281235,0.3662392974991316,0.4584797842935522,-0.14911090933586266,0.95151763647768,0.6053013920151982,-0.49385832151901493,-0.3206025252431475,-0.010401566803024547,-0.23269392091123664,-0.21479473485465403,0.21463415341951395],"bias":1.0397351854550185},{"weights":[0.8049400507821715,0.412363678393618,-0.215756250070646,-0.4213070854762736,-0.5720703782866928,-0.9590331056831334,0.12095167637641911,-0.49669442658756435,-0.5130483884325605,0.6841112317488232,0.018042776837826527,1.1180297321846902],"bias":0.4644255190195791},{"weights":[-0.5595956505786126,-0.1990434184456121,-0.29656392280596094,0.7388613957964844,-0.29108188103952043,0.5199723566954886,-0.7315596900685973,0.3801864620970142,-0.535723398216343,-0.3472820997121485,0.19098386864569175,-0.05210018728989913],"bias":-0.04059710909237141},{"weights":[0.37178920126242504,-0.6393454857294505,0.5265155313064461,-0.23793930713088518,0.8008955669872906,0.315106253550412,-0.8933952167083398,-0.02073264025370706,-0.4509448196903746,0.31485672189057534,-1.33203891461051,0.38212166834682215],"bias":-0.6130059497657032},{"weights":[0.009472452028233165,0.4751151293821488,-0.9865491335184635,-0.08378308096383108,0.5630487637555741,0.546961896031324,0.4606962568141889,0.09023066260321923,0.6446790673590793,-0.29324531346204885,-0.09973404164328069,-0.254494158369434],"bias":0.7955131115599724},{"weights":[0.563651110551971,-0.8736413619914364,0.3781628502156595,-0.1505283173161931,-0.675964450538733,0.4905433258931986,0.71164934534098,-0.47926675028794286,0.7939795620412331,0.3565578550343574,0.7398670953277559,-0.47261899060790125],"bias":-0.9002756531169419},{"weights":[-0.9720868014119421,-0.3931336483234236,-0.5249089269238801,1.0295819688286665,0.8029697556021145,0.119907562908513,0.05706492278040753,0.12051661585204508,0.5654765105650892,-0.5238108579917254,0.8746190822941047,-0.11834611089111588],"bias":-0.6449513709201008}],"hiddenLayer":[{"weights":[1.1857763722585992,-0.48422978409652473,0.06329633259498292,0.8166951734360427,0.2951100840737882,0.2185129631731214,-0.5016520411477176,0.2925381318069136,0.602840949657132,0.6417659158103719,-0.7292330378856112,-0.1668382083198909],"bias":-0.9090648349193412},{"weights":[-0.5986344672549253,0.4098410098022716,0.8647267801308978,-0.6450302007314621,0.4062258084915977,0.8002399686783601,-0.7087628245139161,-0.4830729237908597,-1.0152251631517535,0.3557244570717145,0.91914918699919,0.13602890310222904],"bias":-1.173394829803628},{"weights":[-0.5098937980315162,0.27659576642129946,-0.696388919750995,0.6275226797168661,1.1550247739397215,0.41154803942422935,0.538828076910298,-0.7514972080351874,-0.6812045247360702,0.14220193408444579,-0.39458299461623925,0.5871263276156725],"bias":0.4211236784246829},{"weights":[-0.7060085999212042,0.26730000132162746,-0.049219973275882394,-0.5070521400550648,0.7027083227513566,1.066838063993814,-0.9919694068353325,-0.6089346633251531,-0.4729477238607184,-0.2886218494223651,-0.11950219249783087,0.607596053503928],"bias":0.1419710047739717},{"weights":[0.4519511659264022,0.3344420361579257,0.7932718516548347,-0.8323151614323463,-0.5700505554933635,-0.11360096677360819,-0.6948246400244257,0.5747264597956433,-0.8852262631912493,0.045929325843589844,0.003393110468517792,0.14711800594204316],"bias":0.3543989742571014},{"weights":[-0.5593287294523317,0.9131447201954437,0.8284679433994059,0.9181225785288009,-0.794473631484861,0.883313277469865,0.2818880912780616,-0.0014543573267589843,-0.0194872009741234,0.5427734274225794,-0.2118483767896585,0.34470998065474906],"bias":-0.05521791242169273},{"weights":[0.7483175638871565,-0.026206665257880686,0.42463873551987313,-0.3704224480211973,0.8819059504108661,0.6236847392825736,-0.7880119167590396,0.44994390768527825,-0.7461827938707716,-1.0357500405858753,0.7329760257542756,1.4748916843337472],"bias":-0.012758945066610933},{"weights":[0.23481249920866307,-0.06418974532101102,-0.5767829788944427,0.8059084474092401,-0.29803336005353936,0.6767522090626228,0.6842239818128052,-0.24702177537692935,-0.917351135344384,0.7889946851644581,0.8018898782099155,-0.33718106983403323],"bias":0.6693214513666105},{"weights":[1.2133233631983245,-0.08471357227485968,-0.7940844120298045,-0.013323940710153123,-1.012323688864827,0.253052939956149,0.0017570730360169998,0.2988254137829497,-0.6689022181974588,-0.5462211062470684,0.044633579466914985,1.2653145394185121],"bias":0.27813230150365853},{"weights":[0.2733337864122246,0.9392313070345931,0.06345228290012864,-0.2688215827693111,0.7878269667356962,0.4271161241664736,1.0589471256317773,0.4779138638336086,1.3374530064116326,-0.47088704712143253,-0.3053773174449477,0.06349010152391715],"bias":-1.0503771671736668},{"weights":[-0.4236556312681967,-0.6742144275488997,-0.196946384628369,0.30277876701869866,-0.48064547222427956,0.6772593687061859,-0.2810906213081442,-0.4697089127652065,0.9244545104186845,-0.7556043070001239,0.8518402957604239,0.6657270248462456],"bias":-0.24964995745466118},{"weights":[-0.011998409325980813,0.9144937378593564,-0.11938250169588392,0.6053300753825281,-1.2126232599149125,0.011429596473885847,0.8217093418782921,0.8029403328304213,-0.2811665833020043,0.46695642878947513,-0.9326592358966734,-0.23363164173396028],"bias":0.18766386950949154},{"weights":[0.0013849207635252408,-0.27782126536902496,0.44112105079847386,0.8852296394104191,-0.3207693608815234,-0.6156259875895486,-0.3421336917504472,-0.23418763880734977,-0.9104991129888864,-0.07742992517863048,0.729104677336174,0.35401396091342885],"bias":0.26913068115957994},{"weights":[-0.7846892864775584,-1.392625074290227,-0.3995077356962363,-0.7965183004466854,-0.14487253944332099,0.52637613518508,0.10235607771429232,0.3467718684947509,1.0314360983206456,-0.9894900981453991,-0.07985754696430314,-0.5568765161897264],"bias":0.13737206185287412},{"weights":[0.3270538338188367,-0.11293786543555563,0.01589949338749143,0.4977884535626655,-0.6496885554263853,0.6546174729000394,0.39941442423893475,-0.308588341430439,-0.921694395039849,-0.15448073292912184,-0.40027115602396435,-0.3869780057642516],"bias":0.7067732290786436},{"weights":[-0.5747954246786251,-0.22092943286505728,-0.9221694536286152,0.5535147294365954,-0.47025447795106434,-0.2959533413502657,0.6738874974692708,0.872590016980778,1.1018862095094768,-0.08909571698742556,1.3135141885043238,0.6816161950880221],"bias":-0.5061113033322708}],"outputLayer":[{"weights":[-0.24387076669758445,-0.8226225082954105,0.5586724991734726,-0.7080032205932811,0.9293441469920026,0.21127131714068462,1.154896218721234,1.3085677646411658,1.019348774827762,0.30017724124740297,0.32453308375206635,-0.20064071361257219,0.10112772448513731,-0.04534121349309224,-0.5710808812616537,0.47856287615154147],"bias":0.5777138495983996},{"weights":[0.30039039563794645,-1.0013855137373415,-0.659740977500069,-0.23281470521764608,-0.5024788185180351,0.7318193822278295,-0.8243494066958779,-0.7810904658321836,0.887265068922964,0.08821372128721802,0.3043051955002293,0.54229982693688,-0.9979821500079367,0.17283448890067113,0.4850104612356417,-0.672460911704207],"bias":1.2240414543507647},{"weights":[1.0328426795745789,0.011232455128666448,-0.30579638568026546,0.6304496144104029,-0.42570878810634566,-0.9804872273230947,1.0753142111569274,-0.5962323734699824,0.08720401297742696,1.3171519203960311,0.32602850943511996,0.3151774709366897,-0.5938668287456149,0.357680258452474,-0.6942199041397412,-0.19915691754913165],"bias":-0.7343581684940143},{"weights":[-0.24725574466846237,-0.3972654813224739,0.12525400940253476,-0.01809476452326214,-0.00558780186031399,0.9041025316483703,0.5659125597002073,0.10637708124718774,0.8713178294765689,0.4659151866882061,0.6095131085038776,-0.14561296417367936,-0.054835355875784,-0.39306216942248606,-0.17006605463030466,-0.6871871997821585],"bias":-1.0450213215009958}],"inputLayerOutputs":[0.44600053253095556,0.8397854638362956,0.4813099571122537,0.7299603759904124,0.6564551162860834,0.8827801901665071,0.44996766166922064,0.30714196084957557,0.30661898315833924,0.7033501231512884,0.39606719225510495,0.34599220345240034],"hiddenLayerOutputs":[0.593919118035663,0.42677570652360386,0.8348026006290393,0.5602851723342657,0.453529764435525,0.9110792377529885,0.7289728098951179,0.8946552834975183,0.4684940046331684,0.767099104045188,0.3665029945375146,0.7225421803681003,0.4981623586942716,0.09641689151529964,0.6640646296721399,0.5111811810198205]},"challenger":null,"time":923,"challenge":false,"color":{"r":194.47154992255818,"g":186.2456029030402,"b":180.8315156478036},"inputs":[0.1338263872723301,0.943619993252341,1.3426961997547433,0.923,0.015318724828313531,0.33718614510073514,0.48460000000000086,0.077,1,0.04729411216462265,-0.3808969646729194,0.2824903214526866],"outputs":[0.9667945269400551,0.4794000449768045,0.4304988811616581,0.6025856955336192]},{"id":78273,"x":960.1545062374119,"y":899.6477683525801,"size":15,"energy":488.8170680322915,"brain":{"id":78273,"inputLayer":[{"weights":[0.01574304075630102,-0.4111210855964031,-0.6659696579410382,1.3773473536355243,-0.2753474776825371,0.3719611237034665,0.8871759397665944,-0.42790323432669775,-0.46849867431234615,0.40218264679781646,-0.3568724284831948,0.7113664935340891],"bias":-0.5274382968954002},{"weights":[-1.1053112452026443,1.1538612503888992,0.9244221426803613,-0.04969971275722246,0.17550168666300184,-0.5591551553844093,0.11935155305435793,0.5330003772181063,0.6281303429870302,0.18915770214170208,-0.37503391026636834,-0.08951059508553116],"bias":-1.118398161760778},{"weights":[1.069480611683116,0.18439043497957935,-1.1301153540771427,0.9290988945476987,0.04084909905781601,-0.0543412178815965,-0.32734480517903286,-0.7528078714688773,-0.3251327914126939,0.4442575409425136,-0.6474885727405706,0.472635821820949],"bias":0.4891509937731651},{"weights":[-0.8938627545700871,-0.8523893590779291,0.8205266249154088,0.4842340215096128,0.03621905962794582,1.0164575821800323,0.3273013160106086,-0.2878166717692295,0.5749166966781116,0.2734867328287721,-0.9694161520827037,-0.020607265830057515],"bias":-0.86266270044497},{"weights":[-0.6944102592778479,0.8485132589477336,0.3096936896459288,1.020832040547607,0.6810537137089827,-0.723625607931521,-0.7541070147593867,-0.8304172846757737,-0.5412702092629094,-0.5327433054646499,0.9217128468628885,-0.22756228995934483],"bias":0.16633013578576744},{"weights":[0.5979723918281235,0.3662392974991316,0.4584797842935522,-0.19768544833964657,0.9846035216250052,0.6053013920151982,-0.4452710540978139,-0.3206025252431475,0.012787295742933587,-0.18682686197233123,-0.19963404650222324,0.2208253362925212],"bias":0.9826343845339548},{"weights":[0.7867415919708173,0.38413632893545285,-0.215756250070646,-0.40499537945213004,-0.5720703782866928,-0.9590331056831334,0.12095167637641911,-0.49669442658756435,-0.5899310469569496,0.7303772964352021,0.04136387713174349,1.166888472271954],"bias":0.4549480155254683},{"weights":[-0.5485430644004224,-0.22923372713015921,-0.23684624968936646,0.7246781838382286,-0.27115221976370085,0.5199723566954886,-0.7315596900685973,0.44192692897535496,-0.6338990677146046,-0.2912154420278523,0.14590164029881572,0.05507761193964437],"bias":-0.09788487974229407},{"weights":[0.3326963153204728,-0.5906403204088883,0.6431029871090151,-0.2670844870766953,0.8459468089633969,0.34231831958524095,-0.9258797245112249,0.07899232158802497,-0.4545555835361538,0.3155525821816017,-1.1933901065182035,0.40577196949306893],"bias":-0.5406550023374507},{"weights":[0.01040332505952328,0.5303878451698903,-0.9857362909704985,-0.033507106656532525,0.536765332493539,0.5321225386073525,0.5241731692504152,0.12069019881665587,0.670198543806624,-0.2502895690881653,-0.0421898465231761,-0.2736790856366723],"bias":0.8292834907159299},{"weights":[0.5241055984186461,-0.8859631410885823,0.34936250279460423,0.016430734867949694,-0.622581084567725,0.4550702627203874,0.7417633566964964,-0.3981942359340823,0.7131063360256766,0.4056787114001998,0.6825052311768054,-0.34482883650372376],"bias":-0.8827202215659631},{"weights":[-1.133602734622644,-0.3434795559602769,-0.5462421297751161,1.0599816557263806,0.7601009407676289,0.1031412164394262,0.10677114566720447,0.08360117634137382,0.6058330896493266,-0.5332797838608554,0.6859345362522048,-0.12034469401243904],"bias":-0.6967249452477189}],"hiddenLayer":[{"weights":[1.251786764579587,-0.44688832407224266,-0.010384181558950024,0.761622418950169,0.1408488146364756,0.2395563318418433,-0.531582054861568,0.2867850576722468,0.6707795138115046,0.6700360890594401,-0.6999356384754051,-0.08274673425250834],"bias":-1.0212478221337724},{"weights":[-0.6469398410434548,0.45993349125093264,0.9187858789324193,-0.6776967470322004,0.4038931458806901,0.6759155312807349,-0.6497363708492073,-0.4514081941483958,-0.9137736150810869,0.35875902039185625,0.914539990853027,0.12475579910996226],"bias":-1.0609411183723765},{"weights":[-0.5098937980315162,0.27659576642129946,-0.696388919750995,0.6275226797168661,1.1550247739397215,0.41154803942422935,0.538828076910298,-0.7514972080351874,-0.6812045247360702,0.14220193408444579,-0.39458299461623925,0.5871263276156725],"bias":0.4211236784246829},{"weights":[-0.6603916794869699,0.26730000132162746,-0.049219973275882394,-0.5070521400550648,0.7027083227513566,1.066838063993814,-0.979400973485903,-0.6089346633251531,-0.4729477238607184,-0.2886218494223651,-0.11950219249783087,0.607596053503928],"bias":0.1419710047739717},{"weights":[0.4519511659264022,0.3344420361579257,0.7932718516548347,-0.8323151614323463,-0.5700505554933635,-0.11360096677360819,-0.6948246400244257,0.5747264597956433,-0.8852262631912493,0.045929325843589844,0.003393110468517792,0.14711800594204316],"bias":0.3543989742571014},{"weights":[-0.5593287294523317,0.9131447201954437,0.7950137494186403,0.9181225785288009,-0.794473631484861,0.883313277469865,0.2818880912780616,-0.0014543573267589843,-0.0194872009741234,0.5129233905258677,-0.2118483767896585,0.34470998065474906],"bias":-0.09895001343652954},{"weights":[0.7483175638871565,-0.026206665257880686,0.42463873551987313,-0.3704224480211973,0.8819059504108661,0.6236847392825736,-0.7880119167590396,0.44994390768527825,-0.7461827938707716,-1.0357500405858753,0.7329760257542756,1.4748916843337472],"bias":-0.012758945066610933},{"weights":[0.23481249920866307,-0.06418974532101102,-0.5767829788944427,0.8059084474092401,-0.29803336005353936,0.6811435382524182,0.6842239818128052,-0.24702177537692935,-0.917351135344384,0.7889946851644581,0.8018898782099155,-0.33718106983403323],"bias":0.6693214513666105},{"weights":[1.2133233631983245,-0.06933147141490592,-0.7940844120298045,-0.013323940710153123,-1.012323688864827,0.253052939956149,0.0017570730360169998,0.2750519769842415,-0.6689022181974588,-0.5462211062470684,0.044633579466914985,1.2653145394185121],"bias":0.27813230150365853},{"weights":[0.14958302813435204,0.7525139439276582,0.02728701188770282,-0.24284740026850582,0.7414618705661589,0.300200451387187,1.0208403193271933,0.5308668030987632,1.2900641767590821,-0.5055427668316398,-0.45321740068076716,-0.21603834217703186],"bias":-1.207965424805164},{"weights":[-0.3792637979504326,-0.7031940957966265,-0.2729180808242849,0.2978806470802236,-0.7012706924405526,0.7400161414392393,-0.14910381847541873,-0.47253095598459616,0.7382995744737955,-0.8335077292652248,0.9128191211107035,0.7926478572997074],"bias":-0.2625451675852004},{"weights":[0.13863030524643244,1.121980221424024,-0.051234674705776445,0.6792194145365698,-1.1473226221747186,-0.027351507084343675,0.7339475401631328,0.8521741148703934,-0.2306683390275153,0.653348112512125,-1.0405012360692445,-0.19755069197068204],"bias":0.09311215846673869},{"weights":[0.028668717887484943,-0.32515508027356627,0.39138673239853566,0.9071790348353642,-0.3207693608815234,-0.6331796141509483,-0.37438489413599707,-0.3348026977331936,-1.05014397551705,-0.059080376887478664,0.7369970958266425,0.3481720310623164],"bias":0.23688482837684277},{"weights":[-0.8129463506621497,-1.3981903357046597,-0.4074480148271181,-0.79706330689242,-0.19406219752415477,0.5741581170693452,0.08566399430941647,0.39107757272885674,1.1866512969596892,-1.0343479029719989,0.11837630418085497,-0.5742410502960114],"bias":0.09576455116558219},{"weights":[0.33872975038537334,-0.09119773550405508,-0.06637476595580011,0.5265917660905697,-0.6922067754436521,0.6658037487715867,0.24956146569549365,-0.39047530717341483,-0.995071428489411,-0.10910177084530677,-0.24459353797377417,-0.46217607289611534],"bias":0.6143650125630586},{"weights":[-0.5998815098639672,-0.1804173289460984,-0.8878946056819081,0.6076071727377464,-0.503368036839943,-0.28553349963822194,0.7966847340448561,0.9644332935494203,0.996941308566749,-0.08004378014946692,1.3828602433562387,0.8360842099027789],"bias":-0.5279832470527278}],"outputLayer":[{"weights":[-0.24387076669758445,-0.7934116104584525,0.5586724991734726,-0.7080032205932811,0.9293441469920026,0.21127131714068462,1.154896218721234,1.2918285916860344,1.019348774827762,0.30017724124740297,0.3380405276835297,-0.20064071361257219,0.10112772448513731,-0.04534121349309224,-0.5673958199835294,0.47856287615154147],"bias":0.5777138495983996},{"weights":[0.30039039563794645,-1.0013855137373415,-0.659740977500069,-0.23281470521764608,-0.5024788185180351,0.7318193822278295,-0.8243494066958779,-0.7810904658321836,0.887265068922964,0.08821372128721802,0.2730837473169836,0.54229982693688,-0.9979821500079367,0.17283448890067113,0.4850104612356417,-0.672460911704207],"bias":1.2240414543507647},{"weights":[1.2034731527152547,0.0873924078976403,-0.26237655193516457,0.6339754583432129,-0.42050569166246177,-0.9754641566274399,1.0792361337287608,-0.6664932415669785,-0.06552113962107611,1.3648711200729293,0.2990347600019651,0.3412358495107627,-0.4991416390290685,0.3806241614889002,-0.7934100418027082,-0.1869037407756552],"bias":-0.7432200674644625},{"weights":[-0.1933215665460875,-0.37061620621479135,0.12137453372715332,-0.002622129362627991,0.022438774258722552,0.9012355905534191,0.5559383643391017,0.179545339392321,0.8111634159456236,0.4117514772928032,0.6370173581733256,-0.09439421947466695,-0.12387042466570179,-0.350280382158636,-0.1465896668003448,-0.704966333919101],"bias":-1.015745985202938}],"inputLayerOutputs":[0.7514654745983251,0.6656540864184698,0.5237751137062044,0.5781069939403988,0.3609207988771135,0.7584272726554726,0.7104149713074375,0.18825620038895938,0.15502327444094977,0.7821264128503024,0.6473656487831384,0.4598670835816233],"hiddenLayerOutputs":[0.5256158169617192,0.4375068593914131,0.7704041102887547,0.41582104864131025,0.5354902698798392,0.8847755158700178,0.7471754283171393,0.9342813443022399,0.6636430045911862,0.5028872859904302,0.3881428809235723,0.7803611988200657,0.5682357801040712,0.08071847924354476,0.6955734118203643,0.6244053691231162]},"challenger":null,"time":928,"challenge":false,"color":{"r":196.90536072658398,"g":183.6529966261091,"b":188.68345272041432},"inputs":[0.47793861889980577,0.44898808080197977,0.977634136064583,0.928,0.059421813838234694,-0.04708079698797774,1.4049415794003317,0.463,1,0.03311455345147471,0.11299396167429825,0.9346941334618459],"outputs":[0.9770868465986676,0.4745673310014729,0.3075220432187561,0.6186015457604646]},{"id":78275,"x":746.8192551212996,"y":1150.3562055055513,"size":15,"energy":334.1152525687876,"brain":{"id":78275,"inputLayer":[{"weights":[0.05440543829723577,-0.4394990742040174,-0.6692229893721989,1.3773473536355243,-0.2980060403447407,0.3719611237034665,0.8871759397665944,-0.42790323432669775,-0.4223855618309566,0.40218264679781646,-0.4032137150917147,0.7403806087275627],"bias":-0.5098117131036993},{"weights":[-1.1053112452026443,1.1538612503888992,0.9244221426803613,-0.04969971275722246,0.17550168666300184,-0.5591551553844093,0.11935155305435793,0.5330003772181063,0.6281303429870302,0.18915770214170208,-0.37503391026636834,-0.08951059508553116],"bias":-1.1500604357151212},{"weights":[1.069480611683116,0.18439043497957935,-1.1301153540771427,0.9290988945476987,0.04084909905781601,-0.0543412178815965,-0.32734480517903286,-0.7528078714688773,-0.3251327914126939,0.4442575409425136,-0.6474885727405706,0.472635821820949],"bias":0.4891509937731651},{"weights":[-0.8938627545700871,-0.8523893590779291,0.8205266249154088,0.4842340215096128,0.03621905962794582,1.0164575821800323,0.3273013160106086,-0.2878166717692295,0.5749166966781116,0.2734867328287721,-0.9694161520827037,-0.020607265830057515],"bias":-0.86266270044497},{"weights":[-0.6944102592778479,0.8485132589477336,0.3096936896459288,1.020832040547607,0.6810537137089827,-0.723625607931521,-0.7541070147593867,-0.8304172846757737,-0.5412702092629094,-0.5399432688638803,0.9217128468628885,-0.22756228995934483],"bias":0.16633013578576744},{"weights":[0.7035878550491075,0.3849108155524854,0.4885622922912882,-0.12520747977688335,1.0000355083766663,0.6817910719649424,-0.43675907084797777,-0.29556123391964545,-0.15217238489651658,-0.1827050858016397,-0.2935594549159038,0.42815477748271996],"bias":1.2742685054359935},{"weights":[0.7695420263357392,0.34063849851820804,-0.215756250070646,-0.36754172307582633,-0.5720703782866928,-0.9590331056831334,0.12095167637641911,-0.462767031526628,-0.5130483884325605,0.7021704287810757,0.04696308373019568,1.1180297321846902],"bias":0.4549480155254683},{"weights":[-0.6148643999964529,-0.15239245777897475,-0.2525752080773175,0.6544026032167296,-0.19923958097175193,0.5595881403323116,-0.6825716350596661,0.3746573894207441,-0.6095952391307119,-0.2359749587642164,0.19001958496283672,-0.08194653685080944],"bias":-0.15584751293302043},{"weights":[0.27168751599665775,-0.5958778152890077,0.576447347485059,-0.25186912365894343,0.8396904378314253,0.28889394538478763,-0.8305171858199197,0.11099437267967772,-0.46893251769439276,0.3463616935248044,-1.1547032544772768,0.4117294778023094],"bias":-0.6091487524781365},{"weights":[0.02310040342285486,0.4574276979975862,-0.982483523893732,-0.028621508852468065,0.5202210601934377,0.5787480816504961,0.45801556610820005,0.1198732637649402,0.6294995076912753,-0.2857710052023711,-0.1465911534300822,-0.3150480298673035],"bias":0.7773117395148003},{"weights":[0.5064679597939148,-0.8847989150862857,0.34004306922977334,-0.1505283173161931,-0.6634170754921656,0.4905433258931986,0.7480033096857295,-0.47926675028794286,0.7939795620412331,0.3625921941583478,0.7583088777043391,-0.4982324764600731],"bias":-0.8638393120445463},{"weights":[-0.9638960316551477,-0.358394425442531,-0.5512758165834347,1.1106367584123742,0.7601009407676289,0.05875849042533993,-0.0004182974721110913,0.1029295235674197,0.527947496731528,-0.5250761429301546,0.8000488765160234,-0.1396231226392579],"bias":-0.7128194836169682}],"hiddenLayer":[{"weights":[1.2130224512712875,-0.4906351715476267,-0.02043681035130692,0.8188314526217003,0.19257863390456967,0.14930134923158145,-0.414740507844941,0.31585555349396793,0.6955887126668414,0.6504013378769415,-0.7139021744323869,-0.17551439764678828],"bias":-0.9364615661958942},{"weights":[-0.45879466501125,0.403120833926598,0.8947751452542727,-0.6584070408378578,0.446968518087182,0.8197775021712479,-0.7470697239037789,-0.4898680355870964,-0.832683108618359,0.32409045806570885,0.8638856092535179,0.12475579910996226],"bias":-1.098326773544},{"weights":[-0.4763562052429275,0.24615025910650626,-0.6792140744479421,0.6529718228019525,1.1585618664657042,0.41154803942422935,0.4930940075753583,-0.7514972080351874,-0.6938846351382572,0.14220193408444579,-0.3759706122842765,0.5459055235452533],"bias":0.4211236784246829},{"weights":[-0.7060085999212042,0.21750859266368963,-0.049219973275882394,-0.5493555465859881,0.7048381074292975,1.0590478435157953,-1.0123477436087631,-0.6089346633251531,-0.4729477238607184,-0.2886218494223651,-0.11950219249783087,0.607596053503928],"bias":0.11620930086550746},{"weights":[0.4519511659264022,0.3344420361579257,0.7516112684723637,-0.8188024204816478,-0.587507692595357,-0.11360096677360819,-0.7199334593463134,0.6401452616136067,-0.8852262631912493,0.08719129190599716,-0.02733134729984884,0.132983228278358],"bias":0.4687493206936284},{"weights":[-0.4976367938025777,0.9000222204579378,0.6323071618105638,0.8822875216162576,-0.8516789597568316,0.8134154719478908,0.119323566165414,-0.13275750315048518,0.06746102679934414,0.4886535996496707,-0.12571379412145625,0.5155781652472265],"bias":-0.0785875796024827},{"weights":[0.8621036073414058,0.002044719366469626,0.4124753808365714,-0.29348493273225157,0.7341674427052449,0.4941162334895525,-0.8010126715612078,0.4135921518234811,-0.6905625482777099,-0.8783820360341508,0.777302432253217,1.4782067538152421],"bias":0.024959872133973243},{"weights":[0.2888714533566896,0.15347299903850464,-0.6497762296062249,0.7295691182984526,-0.3009431133631981,0.6081903148721775,0.6553836923391498,-0.25847905916545655,-0.9744699351573871,0.825017700481817,0.8145632446818061,-0.2896506895930848],"bias":0.6421615942813428},{"weights":[1.1702621760739809,-0.06828417731644786,-0.810297286068333,-0.0016520986808225627,-1.0509028764409192,0.33059424682559374,-0.07998070878369609,0.33977866609437796,-0.644735063552082,-0.5497934267232022,0.08451936836491064,1.1732512020014443],"bias":0.1768214402675455},{"weights":[0.2733337864122246,0.9392313070345931,0.06345228290012864,-0.2688215827693111,0.7878269667356962,0.4271161241664736,1.0589471256317773,0.4779138638336086,1.3374530064116326,-0.47088704712143253,-0.3053773174449477,0.06349010152391715],"bias":-1.0503771671736668},{"weights":[-0.4236556312681967,-0.6742144275488997,-0.196946384628369,0.30277876701869866,-0.48064547222427956,0.6772593687061859,-0.2810906213081442,-0.4497444925665622,0.9244545104186845,-0.7556043070001239,0.8518402957604239,0.6657270248462456],"bias":-0.24964995745466118},{"weights":[-0.011998409325980813,0.9144937378593564,-0.11938250169588392,0.6053300753825281,-1.2126232599149125,0.011429596473885847,0.8217093418782921,0.8029403328304213,-0.32785208479260297,0.46695642878947513,-0.9326592358966734,-0.23363164173396028],"bias":0.18766386950949154},{"weights":[0.0013849207635252408,-0.27782126536902496,0.44112105079847386,0.8852296394104191,-0.3207693608815234,-0.6156259875895486,-0.3421336917504472,-0.22394687163185445,-0.9104991129888864,-0.06095012837902072,0.7538137166479626,0.35401396091342885],"bias":0.26913068115957994},{"weights":[-0.7846892864775584,-1.392625074290227,-0.3995077356962363,-0.7965183004466854,-0.14487253944332099,0.52637613518508,0.10235607771429232,0.3467718684947509,1.0314360983206456,-0.9894900981453991,-0.07985754696430314,-0.5568765161897264],"bias":0.13737206185287412},{"weights":[0.3220999945990669,-0.2089222152141917,-0.11435764599342599,0.5373019476751566,-0.6257312154575272,0.6782944824863383,0.4095675708196462,-0.3102809628426929,-0.9968616694358147,-0.15371690888935235,-0.5078778523449126,-0.43319778805161663],"bias":0.658492545335539},{"weights":[-0.6441941651732109,-0.2226397990069212,-0.9035545237076354,0.4972775567522073,-0.49563666312016946,-0.29136567992826123,0.8130181327955035,0.9126269427428377,1.0589431481508964,-0.10208736442447353,1.3216123959251533,0.682702113937502],"bias":-0.5557896434864682}],"outputLayer":[{"weights":[-0.09614153573479892,-0.9201853656106977,0.5920609811870242,-0.6978954718117452,1.0866845960656868,0.11958109687300719,1.26406258811997,1.3216146664028774,1.2269273864898842,0.45681567926739397,0.3593717116674906,-0.15569541446330504,0.27796561585142504,0.006937755720361052,-0.7505992253779777,0.41953402143101837],"bias":0.5860767824694321},{"weights":[0.30039039563794645,-1.0013855137373415,-0.659740977500069,-0.2703155833973763,-0.5102982341121197,0.7716161165927699,-0.8275007237424223,-0.7801758158648251,0.887265068922964,0.0916371876823986,0.3598426857312568,0.552655703050034,-0.9979821500079367,0.17283448890067113,0.52816917074984,-0.6436782506162317],"bias":1.2373593753422776},{"weights":[1.007475027444302,0.08927320443536436,-0.2735610026197947,0.6022874378376173,-0.42570878810634566,-0.9804872273230947,1.1216861412928576,-0.5962323734699824,0.030286437097199186,1.2753680502722247,0.3695079780513572,0.3151774709366897,-0.6289399482842971,0.357680258452474,-0.6566587504604425,-0.11407472092614722],"bias":-0.7343581684940143},{"weights":[-0.24842767387413212,-0.35537020290867954,0.0808213538570598,0.04683653163708253,0.03248278563438173,0.9938038163674071,0.48163503402546554,0.12089500439277936,0.8090425964446221,0.39262480405422584,0.6303226152520485,-0.15350047875316922,-0.07628392970534895,-0.42266279186740674,-0.08798053560165871,-0.704966333919101],"bias":-1.0503474089383684}],"inputLayerOutputs":[0.7001207943246845,0.6948643822523275,0.670308176181067,0.6089630108143963,0.45634470422661694,0.7973341422453506,0.5709839353571398,0.18066667041644338,0.18122592193963527,0.808482644092954,0.4656058667376563,0.4126480414036116],"hiddenLayerOutputs":[0.5820194020584859,0.4916943321833074,0.7760969930684379,0.44018016885763456,0.579535589004517,0.8834058553692115,0.7704190390891759,0.9156799128342733,0.5415126167470116,0.6919408461436567,0.34175198684470137,0.7232721893922677,0.579698990649685,0.07324404046646746,0.6686940878856047,0.4286646734682829]},"challenger":null,"time":993,"challenge":false,"color":{"r":195.9480065265972,"g":193.36181943894255,"b":201.0358836684004},"inputs":[0.3711254224952881,0.5748554526218571,0.6682305051375752,0.993,0.05484627291330177,-0.21734242456737454,1.100453679566163,0.193,1,0.00977885389665005,-0.45178117632664333,0.1477569799219761],"outputs":[0.9816511148525225,0.47521243131341834,0.39669821310720904,0.6154206449129669]},{"id":78277,"x":686.4228931966954,"y":2000,"size":15,"energy":462.80599231512065,"brain":{"id":78277,"inputLayer":[{"weights":[0.048768687497979454,-0.4111210855964031,-0.6692229893721989,1.3773473536355243,-0.2753474776825371,0.3719611237034665,0.8857414122940427,-0.42790323432669775,-0.4223855618309566,0.40218264679781646,-0.3568724284831948,0.7113664935340891],"bias":-0.5274382968954002},{"weights":[-1.1053112452026443,1.1343393160421416,0.9147032764489518,-0.01809588427354459,0.17611023486608782,-0.5853630062608312,0.2031354429684509,0.5330003772181063,0.6097249724942022,0.16808707680289442,-0.23846613993560795,-0.04797161492630312],"bias":-1.1365461265822256},{"weights":[1.0330850212265097,0.18389181534954774,-1.0749269425604617,0.9483452618168265,0.0009234640114610046,-0.05380094951157191,-0.27990226409947405,-0.761875936928584,-0.34800253498776623,0.5207863308237435,-0.6924728578346313,0.4300207727163766],"bias":0.5951705129453766},{"weights":[-1.061733186341924,-0.790856236226807,0.6926918238888226,0.3979778479596461,0.06139713477618415,1.0699270230888085,0.24550098320577313,-0.4461704276013777,0.6802398861096506,0.023378059060391525,-0.6786078395982117,0.0521793017038014],"bias":-0.8816620253699302},{"weights":[-0.6598575888860372,0.857545549504103,0.3002823891831412,1.0475832996028176,0.6511026562724663,-0.6410742967607951,-0.7643339618535199,-0.9153687723722513,-0.594836970397063,-0.5249268183297319,0.9700320929517201,-0.13123267518155474],"bias":0.031530334290791745},{"weights":[0.6519320493687096,0.344663636424721,0.46180458023336163,-0.10615537232440479,0.9846035216250052,0.5807928302812665,-0.5396300583576854,-0.30169665700303616,0.07620723949111557,-0.19847471218088958,-0.21479473485465403,0.32870458201538755],"bias":1.0503514561033613},{"weights":[0.8049400507821715,0.412363678393618,-0.215756250070646,-0.4213070854762736,-0.5720703782866928,-0.9590331056831334,0.14546366117764192,-0.49669442658756435,-0.5130483884325605,0.6841112317488232,0.018042776837826527,1.1180297321846902],"bias":0.393337150790035},{"weights":[-0.5787458077598604,-0.19392293704174265,-0.29656392280596094,0.7388613957964844,-0.29108188103952043,0.5408071663631845,-0.6986701122164038,0.38372300057155667,-0.554612745069979,-0.3472820997121485,0.216154506423396,-0.020229379192992746],"bias":-0.04059710909237141},{"weights":[0.39276505450982324,-0.6393454857294505,0.542186233943692,-0.23793930713088518,0.8224239350528331,0.315106253550412,-0.9343576950142669,-0.014647341290844898,-0.49658639779385416,0.30035788944637354,-1.3114815110543085,0.38212166834682215],"bias":-0.5885422833743909},{"weights":[-0.07013428146673853,0.469019645790755,-0.887221306038899,0.09153638539685635,0.7081173825149837,0.604686668191918,0.4174780154117679,0.14920545511928085,0.5796503037062432,-0.1565605460343384,0.03647739014958967,-0.3677753098958897],"bias":0.7470388118214015},{"weights":[0.3917626564661845,-0.6919395636351825,0.4045630190127036,-0.19708298145025802,-0.6393995701601055,0.4455604884444995,0.7673660000405917,-0.5981677490149967,0.6920920070195095,0.47968296705466296,0.6184132749163871,-0.5344509675019781],"bias":-0.9965135342773673},{"weights":[-1.0493620600428004,-0.43549766284490166,-0.5319941449407666,1.0411384214538009,0.7720069316258568,0.119907562908513,0.08051823629553331,0.0338354768907343,0.5374565663301971,-0.5146229364060265,0.8661131862564697,-0.12432988871754519],"bias":-0.6563646389759029}],"hiddenLayer":[{"weights":[1.251786764579587,-0.4095349040774002,-0.010384181558950024,0.7875243592598077,0.1408488146364756,0.2395563318418433,-0.531582054861568,0.2867850576722468,0.6707795138115046,0.6700360890594401,-0.6999356384754051,-0.03128476231986592],"bias":-0.9983819516164725},{"weights":[-0.6469398410434548,0.45993349125093264,0.9187858789324193,-0.6776967470322004,0.4038931458806901,0.6759155312807349,-0.67606734960801,-0.42086351043267706,-0.9137736150810869,0.3411565846804254,0.914539990853027,0.12475579910996226],"bias":-1.0609411183723765},{"weights":[-0.5638116652286403,0.30378007730287393,-0.6272979745281564,0.605752804188988,1.073369685426919,0.463875196832918,0.5161500358875897,-0.8168441692707752,-0.5998114809336975,0.14220193408444579,-0.2830533456862298,0.6127665473264153],"bias":0.45155517666140044},{"weights":[-0.6586306985011338,0.2988713377898917,-0.049219973275882394,-0.5246174276128328,0.6891089971078669,1.124179800286584,-1.0181800639501917,-0.573271424569074,-0.46082701626330463,-0.2886218494223651,-0.11950219249783087,0.643685964080998],"bias":0.1419710047739717},{"weights":[0.45801729344187136,0.3361137808840879,0.7593994168841178,-0.8461930682489146,-0.6432120657970868,-0.15851872790195873,-0.7199334593463134,0.5548547116181078,-0.8852262631912493,0.08719129190599716,-0.02733134729984884,0.14711800594204316],"bias":0.4687493206936284},{"weights":[-0.4651628407929307,0.8793872699390946,0.6481684478762895,0.9201686798437781,-0.8509203894235167,0.8134154719478908,0.09354118877162779,-0.13275750315048518,0.03792114071198556,0.4814964759112264,-0.12571379412145625,0.4302659491814478],"bias":-0.06736990328460041},{"weights":[0.8978133914543686,-0.1607141553570374,0.32736127543181587,-0.21497237291061314,0.788453121796788,0.6421284457837309,-0.8666123621476766,0.49491789256176055,-0.6145915086484621,-0.8779280290823303,0.7900195588111368,1.5351770581850221],"bias":-0.06285217382932926},{"weights":[0.21094593584262067,0.019689273885423575,-0.5694700585106979,0.6559415129135497,-0.2696221548840163,0.6084642848730692,0.7123666006139932,-0.1500170103415587,-0.8827676766953393,0.870655553616279,0.8240190634870844,-0.5504676297526132],"bias":0.5513282845287774},{"weights":[1.1702621760739809,-0.09194830764001222,-0.810297286068333,0.02176046175835896,-1.0489515986327662,0.2865321507405775,-0.07998070878369609,0.3896172805604246,-0.5531675546165451,-0.566346744691344,0.08451936836491064,1.1352418116357301],"bias":0.20911769162749544},{"weights":[0.25744153999369923,0.9271891333789617,0.06345228290012864,-0.29865349386955653,0.7652711148881246,0.4010469685440832,1.0947917808951826,0.4779138638336086,1.3219300005937937,-0.47088704712143253,-0.3253385886621717,0.0633841224492315],"bias":-1.0503771671736668},{"weights":[-0.3749042466566077,-0.7044567541191841,-0.20739575624226902,0.209568027069229,-0.4411468756668339,0.8250397480631627,-0.3144657488217231,-0.4660571845616674,0.9190650885485019,-0.7472849303772117,0.8821548858636894,0.6602420100722884],"bias":-0.21532995290656087},{"weights":[0.11903234391143856,0.8588254992082123,-0.06076707948491265,0.711991210120304,-1.1812536307802384,-0.06891259852582718,0.8579945505607249,0.7464479047821708,-0.209795711086219,0.550476139518985,-0.954287267616635,-0.18412366369381675],"bias":0.15591468299942507},{"weights":[0.007448684660907007,-0.27782126536902496,0.45060081836656896,0.9314561390987409,-0.3207693608815234,-0.6156259875895486,-0.3421336917504472,-0.23418763880734977,-0.9239667703688789,-0.039895779282159774,0.729104677336174,0.3512504059588701],"bias":0.23320180346403163},{"weights":[-0.8062225367201613,-1.3687013728462876,-0.4343322737606798,-0.79706330689242,-0.14399177277513567,0.5507202327736823,0.15723159578155302,0.356504863113136,1.1606467261304276,-0.9971619090274743,0.034873158783580924,-0.5356394282549662],"bias":0.14147761540931927},{"weights":[0.3270538338188367,-0.12783090807231032,0.0012682356863521205,0.4977884535626655,-0.698996486899137,0.6546174729000394,0.35453295989727496,-0.30914087917561933,-0.9163779193881102,-0.15371690888935235,-0.40027115602396435,-0.41120759810133556],"bias":0.6674553348306782},{"weights":[-0.5998815098639672,-0.17200594451414403,-0.9427054588942471,0.5339123024403948,-0.5197157531601307,-0.29257375267198643,0.674009473318665,0.872590016980778,1.1285820043367314,-0.07926458088612182,1.2650819976286631,0.6816161950880221],"bias":-0.5194234172198117}],"outputLayer":[{"weights":[-0.24387076669758445,-0.877117124179915,0.5586724991734726,-0.6463087489280975,0.9420363378510052,0.24042719053452904,1.1721941872842214,1.31545890361731,1.019348774827762,0.30017724124740297,0.32453308375206635,-0.18185260790182464,0.05025444123018273,0.015114676554441354,-0.6048401202086208,0.47856287615154147],"bias":0.5777138495983996},{"weights":[0.3497281180326564,-1.0431114354608875,-0.6136119683967369,-0.2557610063291808,-0.5421412881306101,0.8281157352336104,-0.8079629447877786,-0.7442921099430975,0.6690766363116133,0.07162304220121074,0.28566432877862424,0.6054517760286537,-0.8247239227438753,0.2847807569692462,0.3810245199724972,-0.6055513728974936],"bias":1.1935320289870037},{"weights":[0.9936114729991555,0.03597657201473227,-0.30579638568026546,0.5073651201726391,-0.39397302036651083,-0.9804872273230947,1.0362090050912898,-0.5962323734699824,0.024739244142802624,1.31585347949725,0.3706554906192561,0.3273993944820813,-0.584899144945435,0.357680258452474,-0.6942199041397412,-0.11407472092614722],"bias":-0.7343581684940143},{"weights":[-0.24725574466846237,-0.44750871524178937,0.10085140782426727,-0.002622129362627991,-0.03897757418964075,0.9183148134591577,0.5659125597002073,0.12979605357713098,0.8657750671384233,0.40188743941363425,0.6095131085038776,-0.11710080959588219,-0.05232556096098423,-0.3916136621251375,-0.17006605463030466,-0.7013724225817243],"bias":-1.0450213215009958}],"inputLayerOutputs":[0.559957169791556,0.778042661178324,0.7488568213243914,0.5198325496689216,0.6015182289274086,0.8856267426509133,0.6595366877442949,0.26735765991743954,0.2897835932242663,0.7308262691440985,0.29160139738096014,0.28870136587918116],"hiddenLayerOutputs":[0.569403428343194,0.4602768812572555,0.8053872500677436,0.5219763129330027,0.5258429135972388,0.8813478585031497,0.7121438602117471,0.8661757322393424,0.41333287382620815,0.7916891278864364,0.32775234881063536,0.7719457558935369,0.45847952355449595,0.11392856141894171,0.6699560753670476,0.38303907697345274]},"challenger":null,"time":920,"challenge":false,"color":{"r":197.9409208074707,"g":187.63064232451555,"b":203.6070541032142},"inputs":[0.3452935401616069,1,0.9276119846302413,0.92,0.003253379830086999,0,0.4362000000000003,0.029,1,0.060234201705728976,-0.45077558250512817,0.5349752088814705],"outputs":[0.9629237223802551,0.5203533165290866,0.4271884579695433,0.5809234479314433]},{"id":78278,"x":1382.6309236221653,"y":924.8125958760882,"size":15,"energy":807.1568532245104,"brain":{"id":78278,"inputLayer":[{"weights":[0.01574304075630102,-0.4111210855964031,-0.7095586169322889,1.3773473536355243,-0.2753474776825371,0.3719611237034665,0.8871759397665944,-0.42790323432669775,-0.4223855618309566,0.44295083447671624,-0.3568724284831948,0.7113664935340891],"bias":-0.5274382968954002},{"weights":[-1.1053112452026443,1.1343393160421416,0.9147032764489518,-0.014727731738671174,0.17742013052622502,-0.5853630062608312,0.2031354429684509,0.5330003772181063,0.6097249724942022,0.16808707680289442,-0.2765464351697566,-0.016391496993384304],"bias":-1.1365461265822256},{"weights":[1.0330850212265097,0.16344627632187225,-1.0749269425604617,0.9483452618168265,0.02783622262035864,-0.05380094951157191,-0.28268169689157646,-0.7606929333824266,-0.34800253498776623,0.5207863308237435,-0.7004860511107764,0.4300207727163766],"bias":0.5951705129453766},{"weights":[-1.0941995840644545,-0.790856236226807,0.6625436381586546,0.43841415710870574,0.06139713477618415,1.0952015649913285,0.24550098320577313,-0.4461704276013777,0.6802398861096506,0.023378059060391525,-0.6588747649860331,0.0521793017038014],"bias":-0.8816620253699302},{"weights":[-0.6944102592778479,0.8485132589477336,0.3096936896459288,1.0641680387887147,0.6810537137089827,-0.723625607931521,-0.8029250167143033,-0.8617276784822964,-0.4973589492062573,-0.5327433054646499,0.9242519229098259,-0.22234974381008965],"bias":0.16633013578576744},{"weights":[0.5979723918281235,0.3662392974991316,0.5018021392152038,-0.19768544833964657,0.9846035216250052,0.6053013920151982,-0.4452710540978139,-0.3206025252431475,0.05544393297608046,-0.18682686197233123,-0.19963404650222324,0.2204655453417083],"bias":0.9826343845339548},{"weights":[0.7867415919708173,0.38413632893545285,-0.215756250070646,-0.40499537945213004,-0.5720703782866928,-0.9590331056831334,0.12095167637641911,-0.49669442658756435,-0.5548418318735507,0.7303772964352021,0.04136387713174349,1.1349906732324837],"bias":0.4549480155254683},{"weights":[-0.5514060286964728,-0.25194246700096695,-0.23684624968936646,0.6856250719069635,-0.27115221976370085,0.5503585504880417,-0.7315596900685973,0.44192692897535496,-0.6033375424412565,-0.2560102597545053,0.14590164029881572,0.05507761193964437],"bias":-0.13800681429721925},{"weights":[0.3326963153204728,-0.5906403204088883,0.6431029871090151,-0.2670844870766953,0.8459468089633969,0.297721421632437,-0.9258797245112249,0.11357193917620799,-0.4545555835361538,0.3155525821816017,-1.1933901065182035,0.3919702536996083],"bias":-0.5260543072978272},{"weights":[0.01040332505952328,0.5303878451698903,-0.9857362909704985,-0.033507106656532525,0.536765332493539,0.5321225386073525,0.5241731692504152,0.12069019881665587,0.7533028408433616,-0.2502895690881653,-0.0421898465231761,-0.2736790856366723],"bias":0.8292834907159299},{"weights":[0.5485446031832816,-0.8859631410885823,0.34936250279460423,0.06492618815542789,-0.622581084567725,0.4550702627203874,0.6667318538706293,-0.3981942359340823,0.7131063360256766,0.4056787114001998,0.6578462393193504,-0.34482883650372376],"bias":-0.8827202215659631},{"weights":[-1.0812201088325222,-0.3434795559602769,-0.5462421297751161,1.0193687096785564,0.7601009407676289,0.1031412164394262,0.10677114566720447,0.08360117634137382,0.6058330896493266,-0.5106242484668329,0.7217133379843756,-0.09656448876103534],"bias":-0.6967249452477189}],"hiddenLayer":[{"weights":[1.1942710254783306,-0.44462985381149606,-0.02043681035130692,0.8188314526217003,0.23018904342531657,0.14930134923158145,-0.4092947397361978,0.33472195645792024,0.6955887126668414,0.6504013378769415,-0.7139021744323869,-0.17551439764678828],"bias":-0.9364615661958942},{"weights":[-0.5028503495489395,0.403120833926598,0.9032293072669039,-0.6584070408378578,0.4076304224935745,0.8197775021712479,-0.7470697239037789,-0.4898680355870964,-0.8765093549487141,0.32409045806570885,0.8638856092535179,0.12475579910996226],"bias":-1.098326773544},{"weights":[-0.4763562052429275,0.318254290404671,-0.7210180475062249,0.6282490067458227,1.1550247739397215,0.41154803942422935,0.4886813422884689,-0.7514972080351874,-0.6938846351382572,0.1918270781683774,-0.3849782748856474,0.5459055235452533],"bias":0.4211236784246829},{"weights":[-0.7060085999212042,0.2015309941922782,-0.016860181256407182,-0.5246174276128328,0.7027083227513566,1.082728909688479,-0.9931804570350348,-0.6089346633251531,-0.4942013037223313,-0.27508196274991004,-0.14930397368949147,0.6204899248131756],"bias":0.11620930086550746},{"weights":[0.49308285151576026,0.3344420361579257,0.7516112684723637,-0.8188024204816478,-0.5852906388100694,-0.11360096677360819,-0.7989595068525132,0.5808614135449902,-0.8852262631912493,0.11168587634396955,-0.0703384387408883,0.16533045446272004],"bias":0.4687493206936284},{"weights":[-0.4976367938025777,0.9472672739749006,0.6585042770609547,0.9151551650364019,-0.8364283959248651,0.8134154719478908,0.17282226717496385,-0.13275750315048518,0.06746102679934414,0.4886535996496707,-0.12571379412145625,0.45124102743129524],"bias":-0.07050204365064659},{"weights":[0.9054250664369342,-0.016744090549429394,0.38148007791165844,-0.30325277261069655,0.7341674427052449,0.438164878537947,-0.7510477335848778,0.39248223155467676,-0.6905625482777099,-0.8285543527776296,0.7406977608879483,1.5552757770029992],"bias":0.0027009914980866273},{"weights":[0.2596189920679407,-0.031655493493580794,-0.5923442298263204,0.8059084474092401,-0.30119726415167514,0.6799080950386704,0.6590519908772798,-0.24702177537692935,-0.9268898330396187,0.8138341382766785,0.8700584910993897,-0.33718106983403323],"bias":0.6693214513666105},{"weights":[1.2133233631983245,-0.08471357227485968,-0.7940844120298045,-0.013323940710153123,-1.012323688864827,0.253052939956149,0.0017570730360169998,0.2750519769842415,-0.6689022181974588,-0.5893101792646098,0.044633579466914985,1.2653145394185121],"bias":0.2719441119057184},{"weights":[0.14958302813435204,0.7525139439276582,-0.010805538448160075,-0.24284740026850582,0.7414618705661589,0.300200451387187,1.0208403193271933,0.5308668030987632,1.2760504450443435,-0.5055427668316398,-0.45321740068076716,-0.21603834217703186],"bias":-1.1724867580864573},{"weights":[-0.3936152647495377,-0.7031940957966265,-0.2729180808242849,0.2978806470802236,-0.7012706924405526,0.756311047564493,-0.14910381847541873,-0.47253095598459616,0.7382995744737955,-0.8335077292652248,0.9128191211107035,0.7448725820215],"bias":-0.24384219584206332},{"weights":[0.12541884230482897,1.1268061557453357,-0.051234674705776445,0.6792194145365698,-1.1673846924297693,-0.027351507084343675,0.7201156298537539,0.8691431939512961,-0.2392993363136277,0.6316736708524752,-1.0638671962396908,-0.16538416139270945],"bias":0.04699952267948074},{"weights":[0.028668717887484943,-0.32515508027356627,0.39138673239853566,0.9042757293997583,-0.3207693608815234,-0.6331796141509483,-0.37438489413599707,-0.3348026977331936,-1.05014397551705,-0.09285509027189554,0.7369970958266425,0.3481720310623164],"bias":0.23688482837684277},{"weights":[-0.8129463506621497,-1.422766047182419,-0.39639547094180355,-0.79706330689242,-0.14430001959762537,0.5741581170693452,0.08155475588839596,0.39107757272885674,1.1866512969596892,-1.0343479029719989,0.07008839358444748,-0.5742410502960114],"bias":0.09576455116558219},{"weights":[0.33872975038537334,-0.09119773550405508,-0.06637476595580011,0.5265917660905697,-0.6922067754436521,0.6658037487715867,0.22303829248006293,-0.39047530717341483,-0.995071428489411,-0.10910177084530677,-0.22523970855257663,-0.4205806024594029],"bias":0.6143650125630586},{"weights":[-0.5998815098639672,-0.1804173289460984,-0.8878946056819081,0.5997195422609457,-0.503368036839943,-0.28553349963822194,0.7966847340448561,0.9644332935494203,0.996941308566749,-0.08004378014946692,1.3740366215600712,0.84450883238416],"bias":-0.5279832470527278}],"outputLayer":[{"weights":[-0.04646720715112432,-0.9399578579572144,0.6077791532476894,-0.6694067255367505,1.0866845960656868,0.14814049543189012,1.2983123258044642,1.3216146664028774,1.2269273864898842,0.45681567926739397,0.3593717116674906,-0.15569541446330504,0.24992618528560304,0.006937755720361052,-0.7505992253779777,0.41953402143101837],"bias":0.5860767824694321},{"weights":[0.3497281180326564,-1.0431114354608875,-0.6042723264693183,-0.2664638933017519,-0.5421412881306101,0.8281157352336104,-0.8079629447877786,-0.7394657140917413,0.6690766363116133,0.07162304220121074,0.28566432877862424,0.6054517760286537,-0.8247239227438753,0.32219678503996296,0.33323458259624883,-0.6055513728974936],"bias":1.1935320289870037},{"weights":[0.9676810522293655,0.061065883712075456,-0.30579638568026546,0.5423519354307037,-0.39397302036651083,-1.0045665540110782,1.082166807578691,-0.5962323734699824,0.024739244142802624,1.285260691436225,0.3695079780513572,0.3273993944820813,-0.584899144945435,0.357680258452474,-0.6942199041397412,-0.11407472092614722],"bias":-0.7501722363645826},{"weights":[-0.1933215665460875,-0.32804776686517595,0.12137453372715332,-0.002622129362627991,0.07058839198727773,0.9324115573433991,0.5559383643391017,0.179545339392321,0.8111634159456236,0.4117514772928032,0.6370173581733256,-0.07496451288198284,-0.12387042466570179,-0.350280382158636,-0.1465896668003448,-0.704966333919101],"bias":-1.015745985202938}],"inputLayerOutputs":[0.4526133248329574,0.706447840074106,0.6340426727576043,0.7234791328409838,0.47270018581161866,0.912074566057712,0.4448395227150966,0.20479571262168242,0.562479447868462,0.6503347018497984,0.5971239410556564,0.20947556456310062],"hiddenLayerOutputs":[0.5871184020669432,0.4557826855642431,0.7372011317824133,0.4715132587371804,0.4410187243907445,0.9024253379361228,0.6806881476640214,0.8955842571070323,0.39885025901351356,0.6235172782615255,0.47333553438180587,0.7081815435647414,0.45517933969104973,0.16560584860399594,0.6196807946346552,0.623301446674254]},"challenger":null,"time":931,"challenge":false,"color":{"r":194.63735912028784,"g":186.75169899842606,"b":188.28665176681298},"inputs":[0.6900923988279205,0.4604671252409908,1.614313706449021,0.931,0.05841285918476912,0.21497445946150992,0.49960000000000004,0.002,1,0.06681367706060858,-0.6684611599854985,0.03779184391967977],"outputs":[0.9755985090407835,0.5077085318810419,0.37945874671884394,0.5999650515208994]},{"id":78279,"x":1640.9260723864545,"y":315.0252232953028,"size":15,"energy":889.833159650853,"brain":{"id":78279,"inputLayer":[{"weights":[0.11817717314756947,-0.4809405994184809,-0.7660650566734108,1.4103237506954514,-0.2907328413458559,0.48263891710092044,0.8871759397665944,-0.3766490276678248,-0.39635647579515687,0.3547093743010189,-0.43870726076452216,0.6583999171515136],"bias":-0.692965423139587},{"weights":[-1.1053112452026443,1.17723774689981,0.8448734818800369,-0.03897140275047296,0.17611023486608782,-0.5392556623203328,0.2031354429684509,0.5286297074553262,0.6097249724942022,0.12407650537636514,-0.3615247515681779,-0.03215524265364197],"bias":-1.1365461265822256},{"weights":[1.0076221061912343,0.18389181534954774,-1.0813249764533885,0.8956389693504208,0.04653226529893929,-0.034056664961148383,-0.3153058977979467,-0.7939867612094147,-0.34800253498776623,0.5036157977976401,-0.680143233478874,0.381354436293679],"bias":0.6278764690604359},{"weights":[-1.07719261444523,-0.7803052868051308,0.7274328681368266,0.4198236291790965,0.10377320186364053,0.9937014780165458,0.24550098320577313,-0.49222866279127553,0.6802398861096506,0.023378059060391525,-0.7366321706946257,0.0521793017038014],"bias":-0.8969904509694974},{"weights":[-0.5934004973048433,0.8149982011707245,0.3062360735599558,1.0892145166761578,0.5914801908358135,-0.6501737028695588,-0.734441209176319,-0.9268151025569582,-0.5725715587048346,-0.48374860631665784,0.9228260827233691,-0.17149474198729384],"bias":0.03538612027115175},{"weights":[0.656019602995475,0.3849108155524854,0.4769409680462418,-0.17881622446283646,1.0000355083766663,0.5829399724591816,-0.43675907084797777,-0.35269630850982725,-0.15214646141178373,-0.16699942239906043,-0.3414985567029978,0.44502725452353376],"bias":1.2742685054359935},{"weights":[0.8092325886430631,0.38413632893545285,-0.215756250070646,-0.4231877269484038,-0.5655702408140973,-0.966493759168453,0.20602047279565627,-0.49669442658756435,-0.5130483884325605,0.7784227146544928,0.06465419766005412,1.1180297321846902],"bias":0.41602692745631037},{"weights":[-0.5749608468598335,-0.15239245777897475,-0.29867634969270335,0.6478553645337811,-0.27333865926430834,0.5546146971813724,-0.720526675898558,0.40441506426621543,-0.547260927151683,-0.28205282325180137,0.21091119926000446,-0.10823952286641955],"bias":-0.15584751293302043},{"weights":[0.38878645900475195,-0.5485065749148151,0.5175641460319671,-0.24533090624651305,0.8680038999096568,0.2742952664785129,-0.8915708343495422,0.023038471476727565,-0.5026301292904947,0.27359702022006505,-1.3244785386478777,0.38212166834682215],"bias":-0.5496477002293667},{"weights":[0.009472452028233165,0.4543980390397696,-0.9835665438033353,0.0016469004847191292,0.536765332493539,0.546961896031324,0.49154144919281123,0.18844096845670522,0.6294995076912753,-0.26026944402120755,-0.15682494485844886,-0.3372984989728346],"bias":0.7863636002472976},{"weights":[0.4262992313551741,-0.7334658001830212,0.4028906253932056,-0.19708298145025802,-0.6055677717455092,0.4150753611176561,0.7609994703432051,-0.5981677490149967,0.6964889484006637,0.42088492158970564,0.6184132749163871,-0.5344509675019781],"bias":-1.0098426933702946},{"weights":[-1.0383369550883723,-0.41926624915851785,-0.5512758165834347,1.0736345871965278,0.7720069316258568,0.119907562908513,0.09131863063720959,0.08315051165949751,0.5850881299151351,-0.5259602554537133,0.8661131862564697,-0.11834611089111588],"bias":-0.6394239546143781}],"hiddenLayer":[{"weights":[1.1525516693893811,-0.45641152753091635,0.07589225042601398,0.8275690489621204,0.35442897668901235,0.2185129631731214,-0.4574605423873906,0.3305791188920842,0.602840949657132,0.6856562475087601,-0.7292330378856112,-0.19959966476507526],"bias":-0.9090648349193412},{"weights":[-0.5986344672549253,0.4692435611042343,0.890304558143955,-0.6150116360691529,0.4062258084915977,0.810799169614002,-0.7087628245139161,-0.4948739168472243,-0.987189709956502,0.3557244570717145,0.91914918699919,0.16148038944011678],"bias":-1.0909979528962357},{"weights":[-0.5671403617698183,0.30378007730287393,-0.627231729831062,0.5975097216241426,1.0668644121111692,0.463875196832918,0.5626387903953634,-0.8224112245552334,-0.6214930484364388,0.14220193408444579,-0.30370413820365016,0.6242437963568787],"bias":0.4748372780746567},{"weights":[-0.6586306985011338,0.26730000132162746,-0.060640291125653216,-0.5192832976563059,0.6891089971078669,1.116961021152981,-1.0359857286026175,-0.6141801190557886,-0.4729477238607184,-0.2639087948095599,-0.11448607923757105,0.6357943195331908],"bias":0.1419710047739717},{"weights":[0.4519511659264022,0.3344420361579257,0.7516112684723637,-0.8188024204816478,-0.5908686765613238,-0.11360096677360819,-0.7745683076423298,0.5747264597956433,-0.8582740720459336,0.08719129190599716,0.010760981153767814,0.14711800594204316],"bias":0.512676525037784},{"weights":[-0.5971206815992812,0.8671585094343871,0.7258263505012161,0.9181225785288009,-0.849362655053849,0.827110362371863,0.23240718400386418,-0.09260361770951286,0.06284728546103067,0.5055836180131489,-0.0905278637808153,0.355157817599567],"bias":-0.03609940824335864},{"weights":[0.9867991799809123,-0.0168771666259303,0.4007748559058862,-0.275437071562505,0.7341674427052449,0.5034479762636473,-0.8180251908967086,0.4285841860516831,-0.6652312359843778,-0.9135382738300524,0.7926072749759264,1.5083686899700575],"bias":0.05676197077088853},{"weights":[0.28703677562894375,0.15347299903850464,-0.6752982280481838,0.7708977626184096,-0.2745141969416077,0.6415295639168065,0.6852581015651095,-0.25847905916545655,-0.9367584284775667,0.8058170614628589,0.8145632446818061,-0.323502630923445],"bias":0.6421615942813428},{"weights":[1.2158030854430275,-0.08471357227485968,-0.7940844120298045,-0.03600744556951008,-1.0413003748764842,0.253052939956149,0.02630295488287216,0.2750519769842415,-0.6689022181974588,-0.5954761171654112,0.044633579466914985,1.2478507464038613],"bias":0.27813230150365853},{"weights":[0.17772174379961808,0.7525139439276582,0.02728701188770282,-0.24284740026850582,0.7414618705661589,0.300200451387187,1.0365931835551407,0.5308668030987632,1.2413375065794667,-0.46042128720752695,-0.45321740068076716,-0.2287244546255136],"bias":-1.1420213009255766},{"weights":[-0.3936152647495377,-0.7281101614542022,-0.2729180808242849,0.2978806470802236,-0.7012706924405526,0.7671108556065843,-0.14910381847541873,-0.4660571845616674,0.7998396926444916,-0.8695605661160575,0.9128191211107035,0.7340731421526062],"bias":-0.24384219584206332},{"weights":[0.06560361004987604,0.9344326129663695,-0.11938250169588392,0.5835356873621931,-1.1764153053635225,-0.032075818532963166,0.7751222620186615,0.7694325290274476,-0.3597149490044848,0.4957425243127454,-0.9332828984488319,-0.23363164173396028],"bias":0.17792656261814116},{"weights":[-0.041597761006658525,-0.3265696848649312,0.4864969793731372,0.8900298189923325,-0.3420466473751894,-0.6331796141509483,-0.36331882137322574,-0.2787511269445152,-0.951413702949355,-0.048946492596294466,0.7444377697080208,0.35401396091342885],"bias":0.22609836960549878},{"weights":[-0.828735633095165,-1.3529805661093333,-0.36190279397158387,-0.8093342304476364,-0.207317659831157,0.5436156540716878,0.12879467023264948,0.3626095203556729,1.2186518810964346,-0.9971619090274743,0.034873158783580924,-0.5742410502960114],"bias":0.09576455116558219},{"weights":[0.3270538338188367,-0.12783090807231032,0.0012682356863521205,0.4977884535626655,-0.7241819946342047,0.6546174729000394,0.39386423577350305,-0.28907666765704687,-0.8995252215916165,-0.148731590303458,-0.40027115602396435,-0.4254582956519468],"bias":0.6674553348306782},{"weights":[-0.6461886340106066,-0.2292841842614095,-0.9709947008699346,0.51833040201619,-0.5692164697169407,-0.3147921346766683,0.6648560827463721,0.8654158187389039,1.1188409982616931,-0.0642115693915795,1.3258595677922331,0.6830293794055847],"bias":-0.5420532248398341}],"outputLayer":[{"weights":[-0.07540589894566857,-0.9550695798479053,0.5261970531107859,-0.7020072045743472,1.1350845072534776,0.11464112054532603,1.26406258811997,1.398228344074871,1.2094516614783608,0.43372313191165424,0.3558022357277455,-0.1617925650962862,0.1804804132140809,0.05767718674223514,-0.7727532434398614,0.4474985605619979],"bias":0.602779458740515},{"weights":[0.3266462619992959,-1.0902631429774243,-0.6851782645193294,-0.17387575387998783,-0.4812597294616222,0.7931719885127271,-0.8243494066958779,-0.771022288216439,0.8249588794072148,-0.0034773400790122505,0.2237893898359435,0.4955993279383308,-0.9616063346820939,0.22733847668241763,0.5325839305184368,-0.6200497830005022],"bias":1.32045966132722},{"weights":[0.9521360204769331,0.061065883712075456,-0.32257230512331775,0.5926574015828423,-0.42570878810634566,-0.9351556291463723,1.0753142111569274,-0.6019508153604748,-0.010261526390590942,1.2412929386922118,0.3695079780513572,0.28284112480046003,-0.618898312389596,0.357680258452474,-0.6942199041397412,-0.14875665473894611],"bias":-0.7125429545483968},{"weights":[-0.28011899162293824,-0.44066373875651044,0.12525400940253476,0.022346779755655875,-0.00558780186031399,0.942142324469867,0.5928618884552088,0.12231647210735874,0.8774880277136768,0.4189500750667825,0.6095131085038776,-0.14561296417367936,-0.11267422899275106,-0.3916136621251375,-0.17006605463030466,-0.660229653768534],"bias":-1.059409674390833}],"inputLayerOutputs":[0.4092096588765147,0.7625844786734205,0.4270302094744929,0.6869074214675779,0.17635087391195003,0.8890640427472035,0.4609879745547119,0.1460013668550016,0.5748248033585671,0.5962865846363814,0.5252529193410913,0.16342472297351782],"hiddenLayerOutputs":[0.5619970663989373,0.38389207595793184,0.7363135918035097,0.46395433261434044,0.4554070579499777,0.9128328305273126,0.6053690664070638,0.9033431494595824,0.48216869546066304,0.6144349177892083,0.5225250476030413,0.7429451564465203,0.45524646583652667,0.19842723325035275,0.6801368920753508,0.6048099363045936]},"challenger":null,"time":840,"challenge":false,"color":{"r":200.20360887344296,"g":204.52641724789248,"b":209.34539769684758},"inputs":[0.8226526603800434,0.15818661919015095,1.779666319301706,0.84,0.06533951907125338,-0.06845125521645291,0.8759624070733683,0.79,1,0.11313454138748319,-0.8043719372428438,0.0896962724125362],"outputs":[0.974899119279793,0.5707658453004688,0.33876066230218044,0.5720681090244102]},{"id":78280,"x":1473.0302410255483,"y":1002.9804565620162,"size":15,"energy":766.8543811906729,"brain":{"id":78280,"inputLayer":[{"weights":[0.15649507121977518,-0.4809405994184809,-0.7660650566734108,1.4103237506954514,-0.2907328413458559,0.5024026995230155,0.8871759397665944,-0.3766490276678248,-0.39635647579515687,0.3547093743010189,-0.43870726076452216,0.6406249123321258],"bias":-0.692965423139587},{"weights":[-1.0617688643991179,1.1343393160421416,0.8961902777680413,-0.017327577337038408,0.17611023486608782,-0.5853630062608312,0.1718789788204861,0.5330003772181063,0.6097249724942022,0.21479769474982374,-0.23166429431555371,0.02640739660953676],"bias":-1.1365461265822256},{"weights":[0.9866661223214829,0.3045134329377245,-0.9992425330604866,0.8777777765834364,-0.06576971214840227,-0.09831929505795267,-0.331232467333994,-0.5742870484882207,-0.3610532030895136,0.6527606025576796,-0.5668941105326658,0.42562652639404347],"bias":0.4837115887979609},{"weights":[-1.1403479491492439,-0.790856236226807,0.6889693128784623,0.5090491812662038,-0.01179048842334579,1.083415087361817,0.24550098320577313,-0.44213468117479077,0.6825643527980023,0.020767946273174714,-0.7734816503629485,0.013172815503966491],"bias":-0.8517140809020494},{"weights":[-0.632898701046946,0.8413105753665138,0.3062360735599558,1.0892145166761578,0.5914801908358135,-0.6203920165887781,-0.734441209176319,-0.9268151025569582,-0.5725715587048346,-0.48374860631665784,0.9228260827233691,-0.2040187030864991],"bias":0.03538612027115175},{"weights":[0.656019602995475,0.3849108155524854,0.4769409680462418,-0.17881622446283646,1.0000355083766663,0.6029684711452414,-0.42086018122676094,-0.35269630850982725,-0.15214646141178373,-0.14028501056574594,-0.3414985567029978,0.44502725452353376],"bias":1.2742685054359935},{"weights":[0.7867415919708173,0.38413632893545285,-0.215756250070646,-0.40707951300419826,-0.5720703782866928,-0.9690001094260848,0.12095167637641911,-0.5257969225312341,-0.5130483884325605,0.7303772964352021,0.017321458956409658,1.1180297321846902],"bias":0.4976866260286504},{"weights":[-0.5485430644004224,-0.16375173046719382,-0.40856870558287,0.7246781838382286,-0.26125932786790484,0.5446248240001639,-0.7315596900685973,0.4010939942110927,-0.531704136671865,-0.3896344891287102,0.15392781155846041,0.050937560326898335],"bias":-0.08773106420210079},{"weights":[0.35679755656615,-0.6023367106827442,0.6744415083653029,-0.2670844870766953,0.8296971065371094,0.3995437139004402,-0.9213523498384839,0.1115281163950167,-0.4349509334703369,0.30766952585117213,-1.1547588494212842,0.3852364826541045],"bias":-0.5406550023374507},{"weights":[-0.016835248110692244,0.4870302538913662,-0.887221306038899,0.09153638539685635,0.7081173825149837,0.604686668191918,0.3741009250149129,0.1049975710019902,0.6040132683588048,-0.19728617512534874,0.08611116458684857,-0.3677753098958897],"bias":0.7470388118214015},{"weights":[0.5064679597939148,-0.8961990774063745,0.34004306922977334,-0.1505283173161931,-0.6634170754921656,0.4905433258931986,0.7480033096857295,-0.49444987510308563,0.7783183367708928,0.3625921941583478,0.784261062228669,-0.5400001099181392],"bias":-0.8638393120445463},{"weights":[-1.1459675251411472,-0.3434795559602769,-0.5470247586355343,1.033892712822306,0.7577105516127498,0.1031412164394262,0.10677114566720447,0.08360117634137382,0.5679239160365795,-0.5332797838608554,0.7553009622648549,-0.06704868319074751],"bias":-0.637428592754438}],"hiddenLayer":[{"weights":[1.2023676482306271,-0.48682405376010035,0.043564638481839627,0.7895720591617622,0.18305744790454243,0.22698547011781633,-0.4430818843186741,0.3746784653237299,0.716522219913978,0.6767232513126268,-0.7183198912727969,-0.16744219800269047],"bias":-0.9252567180320532},{"weights":[-0.5357048842131943,0.4692435611042343,1.007932081524874,-0.6788278414696364,0.4794288004745097,0.7277800632069474,-0.7524046041764401,-0.440881669160338,-0.9058690028001971,0.3876952606758103,0.8803839580000216,0.12171705319807927],"bias":-1.1310346459732772},{"weights":[-0.49461094589688104,0.15671124298682437,-0.6670131245992417,0.5757683368702907,1.006558926385308,0.44344632114140886,0.4752675160043093,-0.8357152920539299,-0.6854580862762604,0.2074798002053115,-0.32840733280000395,0.6268597129261352],"bias":0.4524410449153889},{"weights":[-0.6586306985011338,0.26730000132162746,-0.049219973275882394,-0.5246174276128328,0.612923070554486,1.0753396702424842,-1.0188166534567658,-0.645150660042467,-0.46082701626330463,-0.28823137063592297,-0.11950219249783087,0.643685964080998],"bias":0.14083127052364652},{"weights":[0.4519511659264022,0.29068568856549315,0.7516112684723637,-0.8461930682489146,-0.587507692595357,-0.15851872790195873,-0.7557618226270368,0.5747264597956433,-0.910954363193875,0.12644173172516804,-0.07611442199432067,0.14711800594204316],"bias":0.4476679288384984},{"weights":[-0.4976367938025777,0.8793872699390946,0.6481684478762895,0.8610460188822174,-0.8364283959248651,0.8232851507332538,0.1906762450014889,-0.13275750315048518,0.06746102679934414,0.4886535996496707,-0.13650541259645224,0.45124102743129524],"bias":-0.04680205546509915},{"weights":[0.7799040348323629,-0.038132277521615306,0.4632527852177143,-0.2264911908895536,0.8139080860401727,0.6581836450398277,-0.6943697638788562,0.48378275881698235,-0.7123847496778986,-0.9445211625612677,0.8356075854853249,1.5434012957952943],"bias":-0.04340037743419653},{"weights":[0.32662245508319526,0.10577085014270227,-0.6519619623576169,0.6168487260365192,-0.3240676917516517,0.7498348745933162,0.6908316923109202,-0.36924571384468874,-0.8567901815569823,0.7738072356589656,0.8284085188781611,-0.5936280443086296],"bias":0.37911091908030825},{"weights":[1.124627317885682,-0.10153491979890006,-0.7929007044810422,0.02281347315858391,-0.9949364238024684,0.3377215557843367,-0.06485722135136526,0.3554853546642842,-0.7020441845360523,-0.5761632441814518,-0.029060570060509633,1.1667999710350547],"bias":0.22012595291637893},{"weights":[0.22656356952476836,0.8220801406242155,0.15735458985994275,-0.2437253682961485,0.8063137586172702,0.37625423804761504,0.9624622804089678,0.3762888910038484,1.4485867407513668,-0.390162110319617,-0.5125490882672226,-0.16445452390269635],"bias":-1.0381820960792603},{"weights":[-0.3873620544002947,-0.6679577301149582,-0.16816324842737504,0.25020275980444806,-0.4449234009623203,0.8162273931973172,-0.2915423677542866,-0.4745223041918765,0.8892841227919926,-0.7184566573090648,0.834870523365941,0.7408245309074977],"bias":-0.18989054942749872},{"weights":[0.06560361004987604,0.9344326129663695,-0.11938250169588392,0.5835356873621931,-1.1764153053635225,-0.032075818532963166,0.7751222620186615,0.7694325290274476,-0.3597149490044848,0.4957425243127454,-0.9332828984488319,-0.23363164173396028],"bias":0.17792656261814116},{"weights":[0.0013849207635252408,-0.3265696848649312,0.4864969793731372,0.8900298189923325,-0.3420466473751894,